3.50918 -8.38914 -14.4471 
3.50918 -8.38914 -14.4471 
3.50918 -8.38914 -14.4471 
3.50918 -8.38914 -14.4471 
3.50918 -8.38914 -14.4471 
3.50918 -8.38914 -14.4471 
3.50918 -8.38914 -14.4471 
3.50918 -8.38914 -14.4471 
3.50918 -8.38914 -14.4471 
3.50918 -8.38914 -14.4471 
3.50918 -8.38915 -14.4471 
3.50918 -8.38917 -14.4471 
3.50918 -8.38919 -14.4471 
3.50918 -8.38923 -14.4471 
3.50918 -8.38927 -14.4471 
3.50918 -8.38932 -14.4471 
3.50918 -8.38938 -14.4471 
3.50918 -8.38944 -14.4471 
3.50918 -8.38951 -14.4471 
3.50918 -8.38958 -14.4471 
3.50918 -8.38966 -14.4471 
3.50918 -8.38973 -14.4471 
3.50918 -8.38982 -14.4471 
3.50918 -8.3899 -14.4471 
3.50918 -8.38999 -14.4471 
3.50918 -8.39008 -14.4471 
3.50918 -8.39017 -14.4471 
3.50918 -8.39026 -14.4471 
3.50918 -8.39035 -14.4471 
3.50918 -8.39044 -14.4471 
3.50918 -8.39054 -14.4471 
3.50917 -8.39063 -14.4471 
3.50916 -8.39073 -14.4471 
3.50915 -8.39083 -14.4471 
3.50914 -8.39093 -14.4471 
3.50912 -8.39102 -14.4471 
3.5091 -8.39112 -14.4471 
3.50908 -8.39122 -14.4471 
3.50906 -8.39132 -14.4471 
3.50903 -8.39142 -14.4471 
3.509 -8.39152 -14.4471 
3.50897 -8.39161 -14.4471 
3.50894 -8.39171 -14.4471 
3.5089 -8.39181 -14.4471 
3.50887 -8.39191 -14.4472 
3.50883 -8.39201 -14.4472 
3.50878 -8.39211 -14.4472 
3.50874 -8.39221 -14.4472 
3.50869 -8.39231 -14.4473 
3.50865 -8.39241 -14.4473 
3.5086 -8.39251 -14.4473 
3.50854 -8.39261 -14.4474 
3.50849 -8.39271 -14.4474 
3.50843 -8.39281 -14.4475 
3.50838 -8.39291 -14.4475 
3.50832 -8.39301 -14.4476 
3.50826 -8.39311 -14.4476 
3.50819 -8.39321 -14.4477 
3.50813 -8.39331 -14.4477 
3.50806 -8.39341 -14.4478 
3.508 -8.39351 -14.4478 
3.50793 -8.39361 -14.4479 
3.50786 -8.39371 -14.448 
3.50779 -8.39381 -14.448 
3.50771 -8.39391 -14.4481 
3.50764 -8.39401 -14.4482 
3.50757 -8.39411 -14.4482 
3.50749 -8.39421 -14.4483 
3.50741 -8.39431 -14.4484 
3.50733 -8.39441 -14.4485 
3.50726 -8.39451 -14.4485 
3.50718 -8.39461 -14.4486 
3.50709 -8.39471 -14.4487 
3.50701 -8.39481 -14.4488 
3.50693 -8.39491 -14.4488 
3.50685 -8.39501 -14.4489 
3.50676 -8.39511 -14.449 
3.50668 -8.39521 -14.4491 
3.50659 -8.39531 -14.4492 
3.50651 -8.39541 -14.4493 
3.50642 -8.39551 -14.4493 
3.50633 -8.39561 -14.4494 
3.50624 -8.39571 -14.4495 
3.50616 -8.39581 -14.4496 
3.50607 -8.39591 -14.4497 
3.50598 -8.39601 -14.4498 
3.50589 -8.39611 -14.4499 
3.5058 -8.39621 -14.45 
3.50571 -8.39631 -14.45 
3.50562 -8.39641 -14.4501 
3.50553 -8.39651 -14.4502 
3.50543 -8.39661 -14.4503 
3.50534 -8.39671 -14.4504 
3.50525 -8.39681 -14.4505 
3.50516 -8.39691 -14.4506 
3.50506 -8.39701 -14.4507 
3.50497 -8.39711 -14.4508 
3.50488 -8.39721 -14.4509 
3.50478 -8.39731 -14.451 
3.50469 -8.39741 -14.451 
3.5046 -8.39751 -14.4511 
3.5045 -8.39761 -14.4512 
3.50441 -8.39771 -14.4513 
3.50431 -8.39781 -14.4514 
3.50422 -8.39791 -14.4515 
3.50412 -8.39801 -14.4516 
3.50403 -8.39811 -14.4517 
3.50393 -8.39821 -14.4518 
3.50383 -8.39831 -14.4519 
3.50374 -8.39841 -14.452 
3.50364 -8.39851 -14.4521 
3.50355 -8.39861 -14.4522 
3.50345 -8.39871 -14.4523 
3.50335 -8.39881 -14.4524 
3.50326 -8.39891 -14.4525 
3.50316 -8.39901 -14.4526 
3.50306 -8.39911 -14.4527 
3.50297 -8.39921 -14.4528 
3.50287 -8.39931 -14.4529 
3.50277 -8.39941 -14.453 
3.50268 -8.39951 -14.4531 
3.50258 -8.39961 -14.4531 
3.50248 -8.39971 -14.4532 
3.50238 -8.39981 -14.4533 
3.50229 -8.39991 -14.4534 
3.50219 -8.40001 -14.4535 
3.50209 -8.40011 -14.4536 
3.50199 -8.40021 -14.4537 
3.50189 -8.40031 -14.4538 
3.5018 -8.40041 -14.4539 
3.5017 -8.40051 -14.454 
3.5016 -8.40061 -14.4541 
3.5015 -8.40071 -14.4542 
3.5014 -8.40081 -14.4543 
3.50131 -8.40091 -14.4544 
3.50121 -8.40101 -14.4545 
3.50111 -8.40111 -14.4546 
3.50101 -8.40121 -14.4547 
3.50091 -8.40131 -14.4548 
3.50081 -8.40141 -14.4549 
3.50072 -8.40151 -14.455 
3.50062 -8.40161 -14.4551 
3.50052 -8.40171 -14.4552 
3.50042 -8.40181 -14.4553 
3.50032 -8.40191 -14.4554 
3.50022 -8.40201 -14.4555 
3.50012 -8.40211 -14.4556 
3.50003 -8.40221 -14.4557 
3.49993 -8.40231 -14.4558 
3.49983 -8.40241 -14.4559 
3.49973 -8.40251 -14.456 
3.49963 -8.40261 -14.4561 
3.49953 -8.40271 -14.4562 
3.49943 -8.40281 -14.4563 
3.49933 -8.40291 -14.4564 
3.49924 -8.40301 -14.4565 
3.49914 -8.40311 -14.4566 
3.49904 -8.40321 -14.4567 
3.49894 -8.40331 -14.4568 
3.49884 -8.40341 -14.4569 
3.49874 -8.40351 -14.457 
3.49864 -8.40361 -14.4571 
3.49854 -8.40371 -14.4572 
3.49844 -8.40381 -14.4573 
3.49834 -8.40391 -14.4574 
3.49824 -8.40401 -14.4575 
3.49815 -8.40411 -14.4576 
3.49805 -8.40421 -14.4577 
3.49795 -8.40431 -14.4578 
3.49785 -8.40441 -14.4579 
3.49775 -8.40451 -14.458 
3.49765 -8.40461 -14.4581 
3.49755 -8.40471 -14.4582 
3.49745 -8.40481 -14.4583 
3.49735 -8.40491 -14.4584 
3.49725 -8.40501 -14.4585 
3.49715 -8.40511 -14.4586 
3.49705 -8.40521 -14.4587 
3.49695 -8.40531 -14.4588 
3.49685 -8.40541 -14.4589 
3.49676 -8.40551 -14.459 
3.49666 -8.40561 -14.4591 
3.49656 -8.40571 -14.4592 
3.49646 -8.40581 -14.4593 
3.49636 -8.40591 -14.4594 
3.49626 -8.40601 -14.4595 
3.49616 -8.40611 -14.4596 
3.49606 -8.40621 -14.4597 
3.49596 -8.40631 -14.4598 
3.49586 -8.40641 -14.4599 
3.49576 -8.40651 -14.46 
3.49566 -8.40661 -14.4601 
3.49556 -8.40671 -14.4602 
3.49546 -8.40681 -14.4603 
3.49536 -8.40691 -14.4604 
3.49526 -8.40701 -14.4605 
3.49516 -8.40711 -14.4606 
3.49506 -8.40721 -14.4607 
3.49497 -8.40731 -14.4608 
3.49487 -8.40741 -14.4609 
3.49477 -8.40751 -14.461 
3.49467 -8.40761 -14.461 
3.49457 -8.40771 -14.4611 
3.49447 -8.40781 -14.4612 
3.49437 -8.40791 -14.4613 
3.49427 -8.40801 -14.4614 
3.49417 -8.40811 -14.4615 
3.49407 -8.40821 -14.4616 
3.49397 -8.40831 -14.4617 
3.49387 -8.40841 -14.4618 
3.49377 -8.40851 -14.4619 
3.49367 -8.40861 -14.462 
3.49357 -8.40871 -14.4621 
3.49347 -8.40881 -14.4622 
3.49337 -8.40891 -14.4623 
3.49327 -8.40901 -14.4624 
3.49317 -8.40911 -14.4625 
3.49307 -8.40921 -14.4626 
3.49297 -8.40931 -14.4627 
3.49287 -8.40941 -14.4628 
3.49277 -8.40951 -14.4629 
3.49267 -8.40961 -14.463 
3.49258 -8.40971 -14.4631 
3.49248 -8.40981 -14.4632 
3.49238 -8.40991 -14.4633 
3.49228 -8.41001 -14.4634 
3.49218 -8.41011 -14.4635 
3.49208 -8.41021 -14.4636 
3.49198 -8.41031 -14.4637 
3.49188 -8.41041 -14.4638 
3.49178 -8.41051 -14.4639 
3.49168 -8.41061 -14.464 
3.49158 -8.41071 -14.4641 
3.49148 -8.41081 -14.4642 
3.49138 -8.41091 -14.4643 
3.49128 -8.41101 -14.4644 
3.49118 -8.41111 -14.4645 
3.49108 -8.41121 -14.4646 
3.49098 -8.41131 -14.4647 
3.49088 -8.41141 -14.4648 
3.49078 -8.41151 -14.4649 
3.49068 -8.41161 -14.465 
3.49058 -8.41171 -14.4651 
3.49048 -8.41181 -14.4652 
3.49038 -8.41191 -14.4653 
3.49028 -8.41201 -14.4654 
3.49018 -8.41211 -14.4655 
3.49008 -8.41221 -14.4656 
3.48998 -8.41231 -14.4657 
3.48988 -8.41241 -14.4658 
3.48978 -8.41251 -14.4659 
3.48968 -8.41261 -14.466 
3.48958 -8.41271 -14.4661 
3.48948 -8.41281 -14.4662 
3.48938 -8.41291 -14.4663 
3.48929 -8.41301 -14.4664 
3.48919 -8.41311 -14.4665 
3.48909 -8.41321 -14.4666 
3.48899 -8.41331 -14.4667 
3.48889 -8.41341 -14.4668 
3.48879 -8.41351 -14.4669 
3.48869 -8.41361 -14.467 
3.48859 -8.41371 -14.4671 
3.48849 -8.41381 -14.4672 
3.48839 -8.41391 -14.4673 
3.48829 -8.41401 -14.4674 
3.48819 -8.41411 -14.4675 
3.48809 -8.41421 -14.4676 
3.48799 -8.41431 -14.4677 
3.48789 -8.41441 -14.4678 
3.48779 -8.41451 -14.4679 
3.48769 -8.41461 -14.468 
3.48759 -8.41471 -14.4681 
3.48749 -8.41481 -14.4682 
3.48739 -8.41491 -14.4683 
3.48729 -8.41501 -14.4684 
3.48719 -8.41511 -14.4685 
3.48709 -8.41521 -14.4686 
3.48699 -8.41531 -14.4687 
3.48689 -8.41541 -14.4688 
3.48679 -8.41551 -14.4689 
3.48669 -8.41561 -14.469 
3.48659 -8.41571 -14.4691 
3.48649 -8.41581 -14.4692 
3.48639 -8.41591 -14.4693 
3.48629 -8.41601 -14.4694 
3.48619 -8.41611 -14.4695 
3.48609 -8.41621 -14.4696 
3.48599 -8.41631 -14.4697 
3.48589 -8.41641 -14.4698 
3.48579 -8.41651 -14.4699 
3.48569 -8.41661 -14.47 
3.48559 -8.41671 -14.4701 
3.48549 -8.41681 -14.4702 
3.48539 -8.41691 -14.4703 
3.48529 -8.41701 -14.4704 
3.48519 -8.41711 -14.4705 
3.48509 -8.41721 -14.4706 
3.485 -8.41731 -14.4707 
3.4849 -8.41741 -14.4708 
3.4848 -8.41751 -14.4709 
3.4847 -8.41761 -14.471 
3.4846 -8.41771 -14.4711 
3.4845 -8.41781 -14.4712 
3.4844 -8.41791 -14.4713 
3.4843 -8.41801 -14.4714 
3.4842 -8.41811 -14.4715 
3.4841 -8.41821 -14.4716 
3.484 -8.41831 -14.4717 
3.4839 -8.41841 -14.4718 
3.4838 -8.41851 -14.4719 
3.4837 -8.41861 -14.472 
3.4836 -8.41871 -14.4721 
3.4835 -8.41881 -14.4722 
3.4834 -8.41891 -14.4723 
3.4833 -8.41901 -14.4724 
3.4832 -8.41911 -14.4725 
3.4831 -8.41921 -14.4726 
3.483 -8.41931 -14.4727 
3.4829 -8.41941 -14.4728 
3.4828 -8.41951 -14.4729 
3.4827 -8.41961 -14.473 
3.4826 -8.41971 -14.4731 
3.4825 -8.41981 -14.4732 
3.4824 -8.41991 -14.4733 
3.4823 -8.42001 -14.4734 
3.4822 -8.42011 -14.4735 
3.4821 -8.42021 -14.4736 
3.482 -8.42031 -14.4737 
3.4819 -8.42041 -14.4738 
3.4818 -8.42051 -14.4739 
3.4817 -8.42061 -14.474 
3.4816 -8.42071 -14.4741 
3.4815 -8.42081 -14.4742 
3.4814 -8.42091 -14.4743 
3.4813 -8.42101 -14.4744 
3.4812 -8.42111 -14.4745 
3.4811 -8.42121 -14.4746 
3.481 -8.42131 -14.4747 
3.4809 -8.42141 -14.4748 
3.4808 -8.42151 -14.4749 
3.4807 -8.42161 -14.475 
3.4806 -8.42171 -14.4751 
3.4805 -8.42181 -14.4752 
3.4804 -8.42191 -14.4753 
3.4803 -8.42201 -14.4754 
3.4802 -8.42211 -14.4755 
3.4801 -8.42221 -14.4756 
3.48 -8.42231 -14.4757 
3.47991 -8.42241 -14.4758 
3.47981 -8.42251 -14.4759 
3.47971 -8.42261 -14.476 
3.47961 -8.42271 -14.4761 
3.47951 -8.42281 -14.4762 
3.47941 -8.42291 -14.4763 
3.47931 -8.42301 -14.4764 
3.47921 -8.42311 -14.4765 
3.47911 -8.42321 -14.4766 
3.47901 -8.42331 -14.4767 
3.47891 -8.42341 -14.4768 
3.47881 -8.42351 -14.4769 
3.47871 -8.42361 -14.477 
3.47861 -8.42371 -14.4771 
3.47851 -8.42381 -14.4772 
3.47841 -8.42391 -14.4773 
3.47831 -8.42401 -14.4774 
3.47821 -8.42411 -14.4775 
3.47811 -8.42421 -14.4776 
3.47801 -8.42431 -14.4777 
3.47791 -8.42441 -14.4778 
3.47781 -8.42451 -14.4779 
3.47771 -8.42461 -14.478 
3.47761 -8.42471 -14.4781 
3.47751 -8.42481 -14.4782 
3.47741 -8.42491 -14.4783 
3.47731 -8.42501 -14.4784 
3.47721 -8.42511 -14.4785 
3.47711 -8.42521 -14.4786 
3.47701 -8.42531 -14.4787 
3.47691 -8.42541 -14.4788 
3.47681 -8.42551 -14.4789 
3.47671 -8.42561 -14.479 
3.47661 -8.42571 -14.4791 
3.47651 -8.42581 -14.4792 
3.47641 -8.42591 -14.4793 
3.47631 -8.42601 -14.4794 
3.47621 -8.42611 -14.4795 
3.47611 -8.42621 -14.4796 
3.47601 -8.42631 -14.4797 
3.47591 -8.42641 -14.4798 
3.47581 -8.42651 -14.4799 
3.47571 -8.42661 -14.48 
3.47561 -8.42671 -14.4801 
3.47551 -8.42681 -14.4802 
3.47541 -8.42691 -14.4803 
3.47531 -8.42701 -14.4804 
3.47521 -8.42711 -14.4805 
3.47511 -8.42721 -14.4806 
3.47501 -8.42731 -14.4807 
3.47491 -8.42741 -14.4808 
3.47481 -8.42751 -14.4809 
3.47471 -8.42761 -14.481 
3.47461 -8.42771 -14.4811 
3.47451 -8.42781 -14.4812 
3.47442 -8.42791 -14.4813 
3.47432 -8.42801 -14.4814 
3.47422 -8.42811 -14.4815 
3.47412 -8.42821 -14.4816 
3.47402 -8.42831 -14.4817 
3.47392 -8.42841 -14.4818 
3.47382 -8.42851 -14.4819 
3.47372 -8.42861 -14.482 
3.47362 -8.42871 -14.4821 
3.47352 -8.42881 -14.4822 
3.47342 -8.42891 -14.4823 
3.47332 -8.42901 -14.4824 
3.47322 -8.42911 -14.4825 
3.47312 -8.42921 -14.4826 
3.47302 -8.42931 -14.4827 
3.47292 -8.42941 -14.4828 
3.47282 -8.42951 -14.4829 
3.47272 -8.42961 -14.483 
3.47262 -8.42971 -14.4831 
3.47252 -8.42981 -14.4832 
3.47242 -8.42991 -14.4833 
3.47232 -8.43001 -14.4834 
3.47222 -8.43011 -14.4835 
3.47212 -8.43021 -14.4836 
3.47202 -8.43031 -14.4837 
3.47192 -8.43041 -14.4838 
3.47182 -8.43051 -14.4839 
3.47172 -8.43061 -14.484 
3.47162 -8.43071 -14.4841 
3.47152 -8.43081 -14.4842 
3.47142 -8.43091 -14.4843 
3.47132 -8.43101 -14.4844 
3.47122 -8.43111 -14.4845 
3.47112 -8.43121 -14.4846 
3.47102 -8.43131 -14.4847 
3.47092 -8.43141 -14.4848 
3.47082 -8.43151 -14.4849 
3.47072 -8.43161 -14.485 
3.47062 -8.43171 -14.4851 
3.47052 -8.43181 -14.4852 
3.47042 -8.43191 -14.4853 
3.47032 -8.43201 -14.4854 
3.47022 -8.43211 -14.4855 
3.47012 -8.43221 -14.4856 
3.47002 -8.43231 -14.4857 
3.46992 -8.43241 -14.4858 
3.46982 -8.43251 -14.4859 
3.46972 -8.43261 -14.486 
3.46962 -8.43271 -14.4861 
3.46952 -8.43281 -14.4862 
3.46942 -8.43291 -14.4863 
3.46932 -8.43301 -14.4864 
3.46922 -8.43311 -14.4865 
3.46912 -8.43321 -14.4866 
3.46903 -8.43331 -14.4867 
3.46893 -8.43341 -14.4868 
3.46883 -8.43351 -14.4869 
3.46873 -8.43361 -14.487 
3.46863 -8.43371 -14.4871 
3.46853 -8.43381 -14.4872 
3.46843 -8.43391 -14.4873 
3.46833 -8.43401 -14.4874 
3.46823 -8.43411 -14.4875 
3.46813 -8.43421 -14.4876 
3.46803 -8.43431 -14.4877 
3.46793 -8.43441 -14.4878 
3.46783 -8.43451 -14.4879 
3.46773 -8.43461 -14.488 
3.46763 -8.43471 -14.4881 
3.46753 -8.43481 -14.4882 
3.46743 -8.43491 -14.4883 
3.46733 -8.43501 -14.4884 
3.46723 -8.43511 -14.4885 
3.46713 -8.43521 -14.4886 
3.46703 -8.43531 -14.4887 
3.46693 -8.43541 -14.4888 
3.46683 -8.43551 -14.4889 
3.46673 -8.43561 -14.489 
3.46663 -8.43571 -14.4891 
3.46653 -8.43581 -14.4892 
3.46643 -8.43591 -14.4893 
3.46633 -8.43601 -14.4894 
3.46623 -8.43611 -14.4895 
3.46613 -8.43621 -14.4896 
3.46603 -8.43631 -14.4897 
3.46593 -8.43641 -14.4898 
3.46583 -8.43651 -14.4899 
3.46573 -8.43661 -14.49 
3.46563 -8.43671 -14.4901 
3.46553 -8.43681 -14.4902 
3.46543 -8.43691 -14.4903 
3.46533 -8.43701 -14.4904 
3.46523 -8.43711 -14.4905 
3.46513 -8.43721 -14.4906 
3.46503 -8.43731 -14.4907 
3.46493 -8.43741 -14.4908 
3.46483 -8.43751 -14.4909 
3.46473 -8.43761 -14.491 
3.46463 -8.43771 -14.4911 
3.46453 -8.43781 -14.4912 
3.46443 -8.43791 -14.4913 
3.46433 -8.43801 -14.4914 
3.46423 -8.43811 -14.4915 
3.46413 -8.43821 -14.4916 
3.46403 -8.43831 -14.4917 
3.46394 -8.43841 -14.4918 
3.46384 -8.43851 -14.4919 
3.46374 -8.43861 -14.492 
3.46364 -8.43871 -14.4921 
3.46354 -8.43881 -14.4922 
3.46344 -8.43891 -14.4923 
3.46334 -8.43901 -14.4924 
3.46324 -8.43911 -14.4925 
3.46314 -8.43921 -14.4926 
3.46304 -8.43931 -14.4927 
3.46294 -8.43941 -14.4928 
3.46284 -8.43951 -14.4929 
3.46274 -8.43961 -14.493 
3.46264 -8.43971 -14.4931 
3.46254 -8.43981 -14.4932 
3.46244 -8.43991 -14.4933 
3.46234 -8.44001 -14.4934 
3.46224 -8.44011 -14.4935 
3.46214 -8.44021 -14.4936 
3.46204 -8.44031 -14.4937 
3.46194 -8.44041 -14.4938 
3.46184 -8.44051 -14.4939 
3.46174 -8.44061 -14.494 
3.46164 -8.44071 -14.4941 
3.46154 -8.44081 -14.4942 
3.46144 -8.44091 -14.4943 
3.46134 -8.44101 -14.4944 
3.46124 -8.44111 -14.4945 
3.46114 -8.44121 -14.4946 
3.46104 -8.44131 -14.4947 
3.46094 -8.44141 -14.4948 
3.46084 -8.44151 -14.4949 
3.46074 -8.44161 -14.495 
3.46064 -8.44171 -14.4951 
3.46054 -8.44181 -14.4952 
3.46044 -8.44191 -14.4953 
3.46034 -8.44201 -14.4954 
3.46024 -8.44211 -14.4955 
3.46014 -8.44221 -14.4956 
3.46004 -8.44231 -14.4957 
3.45994 -8.44241 -14.4958 
3.45984 -8.44251 -14.4959 
3.45974 -8.44261 -14.496 
3.45964 -8.44271 -14.4961 
3.45954 -8.44281 -14.4962 
3.45944 -8.44291 -14.4963 
3.45934 -8.44301 -14.4964 
3.45925 -8.44311 -14.4965 
3.45915 -8.44321 -14.4966 
3.45905 -8.44331 -14.4967 
3.45895 -8.44341 -14.4968 
3.45885 -8.44351 -14.4969 
3.45875 -8.44361 -14.497 
3.45865 -8.44371 -14.4971 
3.45855 -8.44381 -14.4972 
3.45845 -8.44391 -14.4973 
3.45835 -8.44401 -14.4974 
3.45825 -8.44411 -14.4975 
3.45815 -8.44421 -14.4976 
3.45805 -8.44431 -14.4977 
3.45795 -8.44441 -14.4978 
3.45785 -8.44451 -14.4979 
3.45775 -8.44461 -14.498 
3.45765 -8.44471 -14.4981 
3.45755 -8.44481 -14.4982 
3.45745 -8.44491 -14.4983 
3.45735 -8.44501 -14.4984 
3.45725 -8.44511 -14.4985 
3.45715 -8.44521 -14.4986 
3.45705 -8.44531 -14.4987 
3.45695 -8.44541 -14.4988 
3.45685 -8.44551 -14.4989 
3.45675 -8.44561 -14.499 
3.45665 -8.44571 -14.4991 
3.45655 -8.44581 -14.4992 
3.45645 -8.44591 -14.4993 
3.45635 -8.44601 -14.4994 
3.45625 -8.44611 -14.4995 
3.45615 -8.44621 -14.4996 
3.45605 -8.44631 -14.4997 
3.45595 -8.44641 -14.4998 
3.45585 -8.44651 -14.4999 
3.45575 -8.44661 -14.5 
3.45565 -8.44671 -14.5001 
3.45555 -8.44681 -14.5002 
3.45545 -8.44691 -14.5003 
3.45535 -8.44701 -14.5004 
3.45525 -8.44711 -14.5005 
3.45515 -8.44721 -14.5006 
3.45505 -8.44731 -14.5007 
3.45496 -8.44741 -14.5008 
3.45486 -8.44751 -14.5009 
3.45476 -8.44761 -14.501 
3.45466 -8.44771 -14.5011 
3.45456 -8.44781 -14.5012 
3.45446 -8.44791 -14.5013 
3.45436 -8.44801 -14.5013 
3.45426 -8.44811 -14.5014 
3.45416 -8.44821 -14.5015 
3.45406 -8.44831 -14.5016 
3.45396 -8.44841 -14.5017 
3.45386 -8.44851 -14.5018 
3.45376 -8.44861 -14.5019 
3.45366 -8.44871 -14.502 
3.45356 -8.44881 -14.5021 
3.45346 -8.44891 -14.5022 
3.45336 -8.44901 -14.5023 
3.45326 -8.44911 -14.5024 
3.45316 -8.44921 -14.5025 
3.45306 -8.44931 -14.5026 
3.45296 -8.44941 -14.5027 
3.45286 -8.44951 -14.5028 
3.45276 -8.44961 -14.5029 
3.45266 -8.44971 -14.503 
3.45256 -8.44981 -14.5031 
3.45246 -8.44991 -14.5032 
3.45236 -8.45001 -14.5033 
3.45226 -8.45011 -14.5034 
3.45216 -8.45021 -14.5035 
3.45206 -8.45031 -14.5036 
3.45196 -8.45041 -14.5037 
3.45186 -8.45051 -14.5038 
3.45176 -8.45061 -14.5039 
3.45166 -8.45071 -14.504 
3.45156 -8.45081 -14.5041 
3.45146 -8.45091 -14.5042 
3.45136 -8.45101 -14.5043 
3.45126 -8.45111 -14.5044 
3.45116 -8.45121 -14.5045 
3.45107 -8.45131 -14.5046 
3.45097 -8.45141 -14.5047 
3.45087 -8.45151 -14.5048 
3.45077 -8.45161 -14.5049 
3.45067 -8.45171 -14.505 
3.45057 -8.45181 -14.5051 
3.45047 -8.45191 -14.5052 
3.45037 -8.45201 -14.5053 
3.45027 -8.45211 -14.5054 
3.45017 -8.45221 -14.5055 
3.45007 -8.45231 -14.5056 
3.44997 -8.45241 -14.5057 
3.44987 -8.45251 -14.5058 
3.44977 -8.45261 -14.5059 
3.44967 -8.45271 -14.506 
3.44957 -8.45281 -14.5061 
3.44947 -8.45291 -14.5062 
3.44937 -8.45301 -14.5063 
3.44927 -8.45311 -14.5064 
3.44917 -8.45321 -14.5065 
3.44907 -8.45331 -14.5066 
3.44897 -8.45341 -14.5067 
3.44887 -8.45351 -14.5068 
3.44877 -8.45361 -14.5069 
3.44867 -8.45371 -14.507 
3.44857 -8.45381 -14.5071 
3.44847 -8.45391 -14.5072 
3.44837 -8.45401 -14.5073 
3.44827 -8.45411 -14.5074 
3.44817 -8.45421 -14.5075 
3.44807 -8.45431 -14.5076 
3.44797 -8.45441 -14.5077 
3.44787 -8.45451 -14.5078 
3.44777 -8.45461 -14.5079 
3.44767 -8.45471 -14.508 
3.44757 -8.45481 -14.5081 
3.44748 -8.45491 -14.5082 
3.44738 -8.45501 -14.5083 
3.44728 -8.45511 -14.5084 
3.44718 -8.45521 -14.5085 
3.44708 -8.45531 -14.5086 
3.44698 -8.45541 -14.5087 
3.44688 -8.45551 -14.5088 
3.44678 -8.45561 -14.5089 
3.44668 -8.45571 -14.509 
3.44658 -8.45581 -14.5091 
3.44648 -8.45591 -14.5092 
3.44638 -8.45601 -14.5093 
3.44628 -8.45611 -14.5094 
3.44618 -8.45621 -14.5095 
3.44608 -8.45631 -14.5096 
3.44598 -8.45641 -14.5097 
3.44588 -8.45651 -14.5098 
3.44578 -8.45661 -14.5099 
3.44568 -8.45671 -14.51 
3.44558 -8.45681 -14.5101 
3.44548 -8.45691 -14.5102 
3.44538 -8.45701 -14.5103 
3.44528 -8.45711 -14.5104 
3.44518 -8.45721 -14.5105 
3.44508 -8.45731 -14.5106 
3.44498 -8.45741 -14.5107 
3.44488 -8.45751 -14.5108 
3.44478 -8.45761 -14.5109 
3.44468 -8.45771 -14.511 
3.44458 -8.45781 -14.5111 
3.44448 -8.45791 -14.5112 
3.44438 -8.45801 -14.5113 
3.44428 -8.45811 -14.5114 
3.44418 -8.45821 -14.5115 
3.44409 -8.45831 -14.5116 
3.44399 -8.45841 -14.5117 
3.44389 -8.45851 -14.5118 
3.44379 -8.45861 -14.5119 
3.44369 -8.45871 -14.512 
3.44359 -8.45881 -14.5121 
3.44349 -8.45891 -14.5122 
3.44339 -8.45901 -14.5123 
3.44329 -8.45911 -14.5124 
3.44319 -8.45921 -14.5125 
3.44309 -8.45931 -14.5126 
3.44299 -8.45941 -14.5127 
3.44289 -8.45951 -14.5128 
3.44279 -8.45961 -14.5129 
3.44269 -8.45971 -14.513 
3.44259 -8.45981 -14.5131 
3.44249 -8.45991 -14.5132 
3.44239 -8.46001 -14.5133 
3.44229 -8.46011 -14.5134 
3.44219 -8.46021 -14.5135 
3.44209 -8.46031 -14.5136 
3.44199 -8.46041 -14.5137 
3.44189 -8.46051 -14.5138 
3.44179 -8.46061 -14.5139 
3.44169 -8.46071 -14.514 
3.44159 -8.46081 -14.5141 
3.44149 -8.46091 -14.5142 
3.44139 -8.46101 -14.5143 
3.44129 -8.46111 -14.5144 
3.44119 -8.46121 -14.5145 
3.44109 -8.46131 -14.5146 
3.441 -8.46141 -14.5147 
3.4409 -8.46151 -14.5148 
3.4408 -8.46161 -14.5149 
3.4407 -8.46171 -14.515 
3.4406 -8.46181 -14.5151 
3.4405 -8.46191 -14.5152 
3.4404 -8.46201 -14.5153 
3.4403 -8.46211 -14.5154 
3.4402 -8.46221 -14.5155 
3.4401 -8.46231 -14.5156 
3.44 -8.46241 -14.5157 
3.4399 -8.46251 -14.5158 
3.4398 -8.46261 -14.5159 
3.4397 -8.46271 -14.516 
3.4396 -8.46281 -14.5161 
3.4395 -8.46291 -14.5162 
3.4394 -8.46301 -14.5163 
3.4393 -8.46311 -14.5164 
3.4392 -8.46321 -14.5165 
3.4391 -8.46331 -14.5166 
3.439 -8.46341 -14.5167 
3.4389 -8.46351 -14.5168 
3.4388 -8.46361 -14.5169 
3.4387 -8.46371 -14.517 
3.4386 -8.46381 -14.5171 
3.4385 -8.46391 -14.5172 
3.4384 -8.46401 -14.5173 
3.4383 -8.46411 -14.5174 
3.4382 -8.46421 -14.5175 
3.43811 -8.46431 -14.5176 
3.43801 -8.46441 -14.5177 
3.43791 -8.46451 -14.5178 
3.43781 -8.46461 -14.5179 
3.43771 -8.46471 -14.518 
3.43761 -8.46481 -14.5181 
3.43751 -8.46491 -14.5182 
3.43741 -8.46501 -14.5183 
3.43731 -8.46511 -14.5184 
3.43721 -8.46521 -14.5185 
3.43711 -8.46531 -14.5186 
3.43701 -8.46541 -14.5187 
3.43691 -8.46551 -14.5188 
3.43681 -8.46561 -14.5189 
3.43671 -8.46571 -14.519 
3.43661 -8.46581 -14.5191 
3.43651 -8.46591 -14.5192 
3.43641 -8.46601 -14.5193 
3.43631 -8.46611 -14.5194 
3.43621 -8.46621 -14.5195 
3.43611 -8.46631 -14.5196 
3.43601 -8.46641 -14.5197 
3.43591 -8.46651 -14.5198 
3.43581 -8.46661 -14.5199 
3.43571 -8.46671 -14.52 
3.43561 -8.46681 -14.5201 
3.43551 -8.46691 -14.5202 
3.43542 -8.46701 -14.5203 
3.43532 -8.46711 -14.5204 
3.43522 -8.46721 -14.5205 
3.43512 -8.46731 -14.5206 
3.43502 -8.46741 -14.5207 
3.43492 -8.46751 -14.5208 
3.43482 -8.46761 -14.5209 
3.43472 -8.46771 -14.521 
3.43462 -8.46781 -14.5211 
3.43452 -8.46791 -14.5212 
3.43442 -8.46801 -14.5213 
3.43432 -8.46811 -14.5214 
3.43422 -8.46821 -14.5215 
3.43412 -8.46831 -14.5216 
3.43402 -8.46841 -14.5217 
3.43392 -8.46851 -14.5218 
3.43382 -8.46861 -14.5219 
3.43372 -8.46871 -14.522 
3.43362 -8.46881 -14.5221 
3.43352 -8.46891 -14.5222 
3.43342 -8.46901 -14.5223 
3.43332 -8.46911 -14.5224 
3.43322 -8.46921 -14.5225 
3.43312 -8.46931 -14.5226 
3.43302 -8.46941 -14.5227 
3.43293 -8.46951 -14.5228 
3.43283 -8.46961 -14.5229 
3.43273 -8.46971 -14.523 
3.43263 -8.46981 -14.5231 
3.43253 -8.46991 -14.5232 
3.43243 -8.47001 -14.5233 
3.43233 -8.47011 -14.5234 
3.43223 -8.47021 -14.5235 
3.43213 -8.47031 -14.5236 
3.43203 -8.47041 -14.5237 
3.43193 -8.47051 -14.5238 
3.43183 -8.47061 -14.5239 
3.43173 -8.47071 -14.524 
3.43163 -8.47081 -14.5241 
3.43153 -8.47091 -14.5242 
3.43143 -8.47101 -14.5243 
3.43133 -8.47111 -14.5244 
3.43123 -8.47121 -14.5245 
3.43113 -8.47131 -14.5246 
3.43103 -8.47141 -14.5247 
3.43093 -8.47151 -14.5248 
3.43083 -8.47161 -14.5249 
3.43073 -8.47171 -14.525 
3.43063 -8.47181 -14.5251 
3.43054 -8.47191 -14.5252 
3.43044 -8.47201 -14.5253 
3.43034 -8.47211 -14.5254 
3.43024 -8.47221 -14.5255 
3.43014 -8.47231 -14.5256 
3.43004 -8.47241 -14.5257 
3.42994 -8.47251 -14.5258 
3.42984 -8.47261 -14.5259 
3.42974 -8.47271 -14.526 
3.42964 -8.47281 -14.5261 
3.42954 -8.47291 -14.5262 
3.42944 -8.47301 -14.5263 
3.42934 -8.47311 -14.5264 
3.42924 -8.47321 -14.5265 
3.42914 -8.47331 -14.5266 
3.42904 -8.47341 -14.5267 
3.42894 -8.47351 -14.5268 
3.42884 -8.47361 -14.5269 
3.42874 -8.47371 -14.527 
3.42864 -8.47381 -14.5271 
3.42854 -8.47391 -14.5272 
3.42844 -8.47401 -14.5273 
3.42834 -8.47411 -14.5274 
3.42825 -8.47421 -14.5275 
3.42815 -8.47431 -14.5276 
3.42805 -8.47441 -14.5277 
3.42795 -8.47451 -14.5278 
3.42785 -8.47461 -14.5279 
3.42775 -8.47471 -14.528 
3.42765 -8.47481 -14.5281 
3.42755 -8.47491 -14.5282 
3.42745 -8.47501 -14.5283 
3.42735 -8.47511 -14.5284 
3.42725 -8.47521 -14.5285 
3.42715 -8.47531 -14.5286 
3.42705 -8.47541 -14.5287 
3.42695 -8.47551 -14.5287 
3.42685 -8.47561 -14.5288 
3.42675 -8.47571 -14.5289 
3.42665 -8.47581 -14.529 
3.42655 -8.47591 -14.5291 
3.42645 -8.47601 -14.5292 
3.42635 -8.47611 -14.5293 
3.42625 -8.47621 -14.5294 
3.42616 -8.47631 -14.5295 
3.42606 -8.47641 -14.5296 
3.42596 -8.47651 -14.5297 
3.42586 -8.47661 -14.5298 
3.42576 -8.47671 -14.5299 
3.42566 -8.47681 -14.53 
3.42556 -8.47691 -14.5301 
3.42546 -8.47701 -14.5302 
3.42536 -8.47711 -14.5303 
3.42526 -8.47721 -14.5304 
3.42516 -8.47731 -14.5305 
3.42506 -8.47741 -14.5306 
3.42496 -8.47751 -14.5307 
3.42486 -8.47761 -14.5308 
3.42476 -8.47771 -14.5309 
3.42466 -8.47781 -14.531 
3.42456 -8.47791 -14.5311 
3.42446 -8.47801 -14.5312 
3.42436 -8.47811 -14.5313 
3.42426 -8.47821 -14.5314 
3.42416 -8.47831 -14.5315 
3.42407 -8.47841 -14.5316 
3.42397 -8.47851 -14.5317 
3.42387 -8.47861 -14.5318 
3.42377 -8.47871 -14.5319 
3.42367 -8.47881 -14.532 
3.42357 -8.47891 -14.5321 
3.42347 -8.47901 -14.5322 
3.42337 -8.47911 -14.5323 
3.42327 -8.47921 -14.5324 
3.42317 -8.47931 -14.5325 
3.42307 -8.47941 -14.5326 
3.42297 -8.47951 -14.5327 
3.42287 -8.47961 -14.5328 
3.42277 -8.47971 -14.5329 
3.42267 -8.47981 -14.533 
3.42257 -8.47991 -14.5331 
3.42247 -8.48001 -14.5332 
3.42237 -8.48011 -14.5333 
3.42227 -8.48021 -14.5334 
3.42218 -8.48031 -14.5335 
3.42208 -8.48041 -14.5336 
3.42198 -8.48051 -14.5337 
3.42188 -8.48061 -14.5338 
3.42178 -8.48071 -14.5339 
3.42168 -8.48081 -14.534 
3.42158 -8.48091 -14.5341 
3.42148 -8.48101 -14.5342 
3.42138 -8.48111 -14.5343 
3.42128 -8.48121 -14.5344 
3.42118 -8.48131 -14.5345 
3.42108 -8.48141 -14.5346 
3.42098 -8.48151 -14.5347 
3.42088 -8.48161 -14.5348 
3.42078 -8.48171 -14.5349 
3.42068 -8.48181 -14.535 
3.42058 -8.48191 -14.5351 
3.42048 -8.48201 -14.5352 
3.42038 -8.48211 -14.5353 
3.42029 -8.48221 -14.5354 
3.42019 -8.48231 -14.5355 
3.42009 -8.48241 -14.5356 
3.41999 -8.48251 -14.5357 
3.41989 -8.48261 -14.5358 
3.41979 -8.48271 -14.5359 
3.41969 -8.48281 -14.536 
3.41959 -8.48291 -14.5361 
3.41949 -8.48301 -14.5362 
3.41939 -8.48311 -14.5363 
3.41929 -8.48321 -14.5364 
3.41919 -8.48331 -14.5365 
3.41909 -8.48341 -14.5366 
3.41899 -8.48351 -14.5367 
3.41889 -8.48361 -14.5368 
3.41879 -8.48371 -14.5369 
3.41869 -8.48381 -14.537 
3.41859 -8.48391 -14.5371 
3.4185 -8.48401 -14.5372 
3.4184 -8.48411 -14.5373 
3.4183 -8.48421 -14.5374 
3.4182 -8.48431 -14.5375 
3.4181 -8.48441 -14.5376 
3.418 -8.48451 -14.5377 
3.4179 -8.48461 -14.5378 
3.4178 -8.48471 -14.5379 
3.4177 -8.48481 -14.538 
3.4176 -8.48491 -14.5381 
3.4175 -8.48501 -14.5382 
3.4174 -8.48511 -14.5383 
3.4173 -8.48521 -14.5384 
3.4172 -8.48531 -14.5385 
3.4171 -8.48541 -14.5386 
3.417 -8.48551 -14.5387 
3.4169 -8.48561 -14.5388 
3.41681 -8.48571 -14.5389 
3.41671 -8.48581 -14.539 
3.41661 -8.48591 -14.5391 
3.41651 -8.48601 -14.5392 
3.41641 -8.48611 -14.5393 
3.41631 -8.48621 -14.5394 
3.41621 -8.48631 -14.5395 
3.41611 -8.48641 -14.5396 
3.41601 -8.48651 -14.5397 
3.41591 -8.48661 -14.5398 
3.41581 -8.48671 -14.5399 
3.41571 -8.48681 -14.54 
3.41561 -8.48691 -14.5401 
3.41551 -8.48701 -14.5402 
3.41541 -8.48711 -14.5403 
3.41531 -8.48721 -14.5404 
3.41522 -8.48731 -14.5405 
3.41512 -8.48741 -14.5406 
3.41502 -8.48751 -14.5407 
3.41492 -8.48761 -14.5408 
3.41482 -8.48771 -14.5409 
3.41472 -8.48781 -14.541 
3.41462 -8.48791 -14.5411 
3.41452 -8.48801 -14.5412 
3.41442 -8.48811 -14.5413 
3.41432 -8.48821 -14.5414 
3.41422 -8.48831 -14.5415 
3.41412 -8.48841 -14.5416 
3.41402 -8.48851 -14.5417 
3.41392 -8.48861 -14.5418 
3.41382 -8.48871 -14.5419 
3.41372 -8.48881 -14.542 
3.41363 -8.48891 -14.5421 
3.41353 -8.48901 -14.5422 
3.41343 -8.48911 -14.5423 
3.41333 -8.48921 -14.5424 
3.41323 -8.48931 -14.5425 
3.41313 -8.48941 -14.5426 
3.41303 -8.48951 -14.5427 
3.41293 -8.48961 -14.5428 
3.41283 -8.48971 -14.5429 
3.41273 -8.48981 -14.543 
3.41263 -8.48991 -14.5431 
3.41253 -8.49001 -14.5432 
3.41243 -8.49011 -14.5433 
3.41233 -8.49021 -14.5434 
3.41223 -8.49031 -14.5435 
3.41214 -8.49041 -14.5436 
3.41204 -8.49051 -14.5437 
3.41194 -8.49061 -14.5438 
3.41184 -8.49071 -14.5439 
3.41174 -8.49081 -14.544 
3.41164 -8.49091 -14.5441 
3.41154 -8.49101 -14.5442 
3.41144 -8.49111 -14.5443 
3.41134 -8.49121 -14.5444 
3.41124 -8.49131 -14.5445 
3.41114 -8.49141 -14.5446 
3.41104 -8.49151 -14.5447 
3.41094 -8.49161 -14.5448 
3.41084 -8.49171 -14.5449 
3.41074 -8.49181 -14.545 
3.41065 -8.49191 -14.5451 
3.41055 -8.49201 -14.5452 
3.41045 -8.49211 -14.5453 
3.41035 -8.49221 -14.5454 
3.41025 -8.49231 -14.5455 
3.41015 -8.49241 -14.5456 
3.41005 -8.49251 -14.5456 
3.40995 -8.49261 -14.5457 
3.40985 -8.49271 -14.5458 
3.40975 -8.49281 -14.5459 
3.40965 -8.49291 -14.546 
3.40955 -8.49301 -14.5461 
3.40945 -8.49311 -14.5462 
3.40935 -8.49321 -14.5463 
3.40926 -8.49331 -14.5464 
3.40916 -8.49341 -14.5465 
3.40906 -8.49351 -14.5466 
3.40896 -8.49361 -14.5467 
3.40886 -8.49371 -14.5468 
3.40876 -8.49381 -14.5469 
3.40866 -8.49391 -14.547 
3.40856 -8.49401 -14.5471 
3.40846 -8.49411 -14.5472 
3.40836 -8.49421 -14.5473 
3.40826 -8.49431 -14.5474 
3.40816 -8.49441 -14.5475 
3.40806 -8.49451 -14.5476 
3.40796 -8.49461 -14.5477 
3.40787 -8.49471 -14.5478 
3.40777 -8.49481 -14.5479 
3.40767 -8.49491 -14.548 
3.40757 -8.49501 -14.5481 
3.40747 -8.49511 -14.5482 
3.40737 -8.49521 -14.5483 
3.40727 -8.49531 -14.5484 
3.40717 -8.49541 -14.5485 
3.40707 -8.49551 -14.5486 
3.40697 -8.49561 -14.5487 
3.40687 -8.49571 -14.5488 
3.40677 -8.49581 -14.5489 
3.40667 -8.49591 -14.549 
3.40658 -8.49601 -14.5491 
3.40648 -8.49611 -14.5492 
3.40638 -8.49621 -14.5493 
3.40628 -8.49631 -14.5494 
3.40618 -8.49641 -14.5495 
3.40608 -8.49651 -14.5496 
3.40598 -8.49661 -14.5497 
3.40588 -8.49671 -14.5498 
3.40578 -8.49681 -14.5499 
3.40568 -8.49691 -14.55 
3.40558 -8.49701 -14.5501 
3.40548 -8.49711 -14.5502 
3.40538 -8.49721 -14.5503 
3.40529 -8.49731 -14.5504 
3.40519 -8.49741 -14.5505 
3.40509 -8.49751 -14.5506 
3.40499 -8.49761 -14.5507 
3.40489 -8.49771 -14.5508 
3.40479 -8.49781 -14.5509 
3.40469 -8.49791 -14.551 
3.40459 -8.49801 -14.5511 
3.40449 -8.49811 -14.5512 
3.40439 -8.49821 -14.5513 
3.40429 -8.49831 -14.5514 
3.40419 -8.49841 -14.5515 
3.4041 -8.49851 -14.5516 
3.404 -8.49861 -14.5517 
3.4039 -8.49871 -14.5518 
3.4038 -8.49881 -14.5519 
3.4037 -8.49891 -14.552 
3.4036 -8.49901 -14.5521 
3.4035 -8.49911 -14.5522 
3.4034 -8.49921 -14.5523 
3.4033 -8.49931 -14.5524 
3.4032 -8.49941 -14.5525 
3.4031 -8.49951 -14.5526 
3.403 -8.49961 -14.5527 
3.40291 -8.49971 -14.5528 
3.40281 -8.49981 -14.5529 
3.40271 -8.49991 -14.553 
3.40261 -8.50001 -14.5531 
3.40251 -8.50011 -14.5532 
3.40241 -8.50021 -14.5533 
3.40231 -8.50031 -14.5534 
3.40221 -8.50041 -14.5535 
3.40211 -8.50051 -14.5536 
3.40201 -8.50061 -14.5537 
3.40191 -8.50071 -14.5538 
3.40181 -8.50081 -14.5539 
3.40172 -8.50091 -14.554 
3.40162 -8.50101 -14.5541 
3.40152 -8.50111 -14.5542 
3.40142 -8.50121 -14.5543 
3.40132 -8.50131 -14.5544 
3.40122 -8.50141 -14.5545 
3.40112 -8.50151 -14.5546 
3.40102 -8.50161 -14.5547 
3.40092 -8.50171 -14.5548 
3.40082 -8.50181 -14.5549 
3.40072 -8.50191 -14.555 
3.40063 -8.50201 -14.5551 
3.40053 -8.50211 -14.5552 
3.40043 -8.50221 -14.5553 
3.40033 -8.50231 -14.5554 
3.40023 -8.50241 -14.5555 
3.40013 -8.50251 -14.5556 
3.40003 -8.50261 -14.5557 
3.39993 -8.50271 -14.5558 
3.39983 -8.50281 -14.5559 
3.39973 -8.50291 -14.556 
3.39963 -8.50301 -14.5561 
3.39954 -8.50311 -14.5562 
3.39944 -8.50321 -14.5563 
3.39934 -8.50331 -14.5564 
3.39924 -8.50341 -14.5565 
3.39914 -8.50351 -14.5566 
3.39904 -8.50361 -14.5567 
3.39894 -8.50371 -14.5568 
3.39884 -8.50381 -14.5569 
3.39874 -8.50391 -14.557 
3.39864 -8.50401 -14.5571 
3.39854 -8.50411 -14.5572 
3.39845 -8.50421 -14.5573 
3.39835 -8.50431 -14.5574 
3.39825 -8.50441 -14.5575 
3.39815 -8.50451 -14.5576 
3.39805 -8.50461 -14.5577 
3.39795 -8.50471 -14.5578 
3.39785 -8.50481 -14.5579 
3.39775 -8.50491 -14.5579 
3.39765 -8.50501 -14.558 
3.39755 -8.50511 -14.5581 
3.39745 -8.50521 -14.5582 
3.39736 -8.50531 -14.5583 
3.39726 -8.50541 -14.5584 
3.39716 -8.50551 -14.5585 
3.39706 -8.50561 -14.5586 
3.39696 -8.50571 -14.5587 
3.39686 -8.50581 -14.5588 
3.39676 -8.50591 -14.5589 
3.39666 -8.50601 -14.559 
3.39656 -8.50611 -14.5591 
3.39646 -8.50621 -14.5592 
3.39637 -8.50631 -14.5593 
3.39627 -8.50641 -14.5594 
3.39617 -8.50651 -14.5595 
3.39607 -8.50661 -14.5596 
3.39597 -8.50671 -14.5597 
3.39587 -8.50681 -14.5598 
3.39577 -8.50691 -14.5599 
3.39567 -8.50701 -14.56 
3.39557 -8.50711 -14.5601 
3.39547 -8.50721 -14.5602 
3.39538 -8.50731 -14.5603 
3.39528 -8.50741 -14.5604 
3.39518 -8.50751 -14.5605 
3.39508 -8.50761 -14.5606 
3.39498 -8.50771 -14.5607 
3.39488 -8.50781 -14.5608 
3.39478 -8.50791 -14.5609 
3.39468 -8.50801 -14.561 
3.39458 -8.50811 -14.5611 
3.39448 -8.50821 -14.5612 
3.39439 -8.50831 -14.5613 
3.39429 -8.50841 -14.5614 
3.39419 -8.50851 -14.5615 
3.39409 -8.50861 -14.5616 
3.39399 -8.50871 -14.5617 
3.39389 -8.50881 -14.5618 
3.39379 -8.50891 -14.5619 
3.39369 -8.50901 -14.562 
3.39359 -8.50911 -14.5621 
3.3935 -8.50921 -14.5622 
3.3934 -8.50931 -14.5623 
3.3933 -8.50941 -14.5624 
3.3932 -8.50951 -14.5625 
3.3931 -8.50961 -14.5626 
3.393 -8.50971 -14.5627 
3.3929 -8.50981 -14.5628 
3.3928 -8.50991 -14.5629 
3.3927 -8.51001 -14.563 
3.3926 -8.51011 -14.5631 
3.39251 -8.51021 -14.5632 
3.39241 -8.51031 -14.5633 
3.39231 -8.51041 -14.5634 
3.39221 -8.51051 -14.5635 
3.39211 -8.51061 -14.5636 
3.39201 -8.51071 -14.5637 
3.39191 -8.51081 -14.5638 
3.39181 -8.51091 -14.5639 
3.39171 -8.51101 -14.564 
3.39162 -8.51111 -14.5641 
3.39152 -8.51121 -14.5642 
3.39142 -8.51131 -14.5643 
3.39132 -8.51141 -14.5644 
3.39122 -8.51151 -14.5645 
3.39112 -8.51161 -14.5646 
3.39102 -8.51171 -14.5647 
3.39092 -8.51181 -14.5648 
3.39082 -8.51191 -14.5649 
3.39073 -8.51201 -14.565 
3.39063 -8.51211 -14.5651 
3.39053 -8.51221 -14.5652 
3.39043 -8.51231 -14.5653 
3.39033 -8.51241 -14.5654 
3.39023 -8.51251 -14.5655 
3.39013 -8.51261 -14.5656 
3.39003 -8.51271 -14.5657 
3.38994 -8.51281 -14.5658 
3.38984 -8.51291 -14.5659 
3.38974 -8.51301 -14.566 
3.38964 -8.51311 -14.5661 
3.38954 -8.51321 -14.5662 
3.38944 -8.51331 -14.5663 
3.38934 -8.51341 -14.5664 
3.38924 -8.51351 -14.5665 
3.38914 -8.51361 -14.5666 
3.38905 -8.51371 -14.5667 
3.38895 -8.51381 -14.5668 
3.38885 -8.51391 -14.5669 
3.38875 -8.51401 -14.567 
3.38865 -8.51411 -14.5671 
3.38855 -8.51421 -14.5672 
3.38845 -8.51431 -14.5673 
3.38835 -8.51441 -14.5674 
3.38826 -8.51451 -14.5675 
3.38816 -8.51461 -14.5675 
3.38806 -8.51471 -14.5676 
3.38796 -8.51481 -14.5677 
3.38786 -8.51491 -14.5678 
3.38776 -8.51501 -14.5679 
3.38766 -8.51511 -14.568 
3.38756 -8.51521 -14.5681 
3.38747 -8.51531 -14.5682 
3.38737 -8.51541 -14.5683 
3.38727 -8.51551 -14.5684 
3.38717 -8.51561 -14.5685 
3.38707 -8.51571 -14.5686 
3.38697 -8.51581 -14.5687 
3.38687 -8.51591 -14.5688 
3.38677 -8.51601 -14.5689 
3.38668 -8.51611 -14.569 
3.38658 -8.51621 -14.5691 
3.38648 -8.51631 -14.5692 
3.38638 -8.51641 -14.5693 
3.38628 -8.51651 -14.5694 
3.38618 -8.51661 -14.5695 
3.38608 -8.51671 -14.5696 
3.38598 -8.51681 -14.5697 
3.38589 -8.51691 -14.5698 
3.38579 -8.51701 -14.5699 
3.38569 -8.51711 -14.57 
3.38559 -8.51721 -14.5701 
3.38549 -8.51731 -14.5702 
3.38539 -8.51741 -14.5703 
3.38529 -8.51751 -14.5704 
3.38519 -8.51761 -14.5705 
3.3851 -8.51771 -14.5706 
3.385 -8.51781 -14.5707 
3.3849 -8.51791 -14.5708 
3.3848 -8.51801 -14.5709 
3.3847 -8.51811 -14.571 
3.3846 -8.51821 -14.5711 
3.3845 -8.51831 -14.5712 
3.3844 -8.51841 -14.5713 
3.38431 -8.51851 -14.5714 
3.38421 -8.51861 -14.5715 
3.38411 -8.51871 -14.5716 
3.38401 -8.51881 -14.5717 
3.38391 -8.51891 -14.5718 
3.38381 -8.51901 -14.5719 
3.38371 -8.51911 -14.572 
3.38362 -8.51921 -14.5721 
3.38352 -8.51931 -14.5722 
3.38342 -8.51941 -14.5723 
3.38332 -8.51951 -14.5724 
3.38322 -8.51961 -14.5725 
3.38312 -8.51971 -14.5726 
3.38302 -8.51981 -14.5727 
3.38292 -8.51991 -14.5728 
3.38283 -8.52001 -14.5729 
3.38273 -8.52011 -14.573 
3.38263 -8.52021 -14.5731 
3.38253 -8.52031 -14.5732 
3.38243 -8.52041 -14.5733 
3.38233 -8.52051 -14.5734 
3.38223 -8.52061 -14.5735 
3.38214 -8.52071 -14.5736 
3.38204 -8.52081 -14.5737 
3.38194 -8.52091 -14.5738 
3.38184 -8.52101 -14.5739 
3.38174 -8.52111 -14.574 
3.38164 -8.52121 -14.5741 
3.38154 -8.52131 -14.5742 
3.38145 -8.52141 -14.5743 
3.38135 -8.52151 -14.5744 
3.38125 -8.52161 -14.5745 
3.38115 -8.52171 -14.5746 
3.38105 -8.52181 -14.5747 
3.38095 -8.52191 -14.5748 
3.38085 -8.52201 -14.5749 
3.38076 -8.52211 -14.575 
3.38066 -8.52221 -14.5751 
3.38056 -8.52231 -14.5752 
3.38046 -8.52241 -14.5753 
3.38036 -8.52251 -14.5754 
3.38026 -8.52261 -14.5754 
3.38016 -8.52271 -14.5755 
3.38007 -8.52281 -14.5756 
3.37997 -8.52291 -14.5757 
3.37987 -8.52301 -14.5758 
3.37977 -8.52311 -14.5759 
3.37967 -8.52321 -14.576 
3.37957 -8.52331 -14.5761 
3.37948 -8.52341 -14.5762 
3.37938 -8.52351 -14.5763 
3.37928 -8.52361 -14.5764 
3.37918 -8.52371 -14.5765 
3.37908 -8.52381 -14.5766 
3.37898 -8.52391 -14.5767 
3.37888 -8.52401 -14.5768 
3.37879 -8.52411 -14.5769 
3.37869 -8.52421 -14.577 
3.37859 -8.52431 -14.5771 
3.37849 -8.52441 -14.5772 
3.37839 -8.52451 -14.5773 
3.37829 -8.52461 -14.5774 
3.3782 -8.52471 -14.5775 
3.3781 -8.52481 -14.5776 
3.378 -8.52491 -14.5777 
3.3779 -8.52501 -14.5778 
3.3778 -8.52511 -14.5779 
3.3777 -8.52521 -14.578 
3.3776 -8.52531 -14.5781 
3.37751 -8.52541 -14.5782 
3.37741 -8.52551 -14.5783 
3.37731 -8.52561 -14.5784 
3.37721 -8.52571 -14.5785 
3.37711 -8.52581 -14.5786 
3.37701 -8.52591 -14.5787 
3.37692 -8.52601 -14.5788 
3.37682 -8.52611 -14.5789 
3.37672 -8.52621 -14.579 
3.37662 -8.52631 -14.5791 
3.37652 -8.52641 -14.5792 
3.37642 -8.52651 -14.5793 
3.37633 -8.52661 -14.5794 
3.37623 -8.52671 -14.5795 
3.37613 -8.52681 -14.5796 
3.37603 -8.52691 -14.5797 
3.37593 -8.52701 -14.5798 
3.37583 -8.52711 -14.5799 
3.37574 -8.52721 -14.58 
3.37564 -8.52731 -14.5801 
3.37554 -8.52741 -14.5802 
3.37544 -8.52751 -14.5803 
3.37534 -8.52761 -14.5804 
3.37524 -8.52771 -14.5805 
3.37514 -8.52781 -14.5806 
3.37505 -8.52791 -14.5807 
3.37495 -8.52801 -14.5808 
3.37485 -8.52811 -14.5809 
3.37475 -8.52821 -14.581 
3.37465 -8.52831 -14.5811 
3.37456 -8.52841 -14.5812 
3.37446 -8.52851 -14.5813 
3.37436 -8.52861 -14.5814 
3.37426 -8.52871 -14.5815 
3.37416 -8.52881 -14.5816 
3.37406 -8.52891 -14.5817 
3.37397 -8.52901 -14.5818 
3.37387 -8.52911 -14.5819 
3.37377 -8.52921 -14.582 
3.37367 -8.52931 -14.5821 
3.37357 -8.52941 -14.5821 
3.37347 -8.52951 -14.5822 
3.37338 -8.52961 -14.5823 
3.37328 -8.52971 -14.5824 
3.37318 -8.52981 -14.5825 
3.37308 -8.52991 -14.5826 
3.37298 -8.53001 -14.5827 
3.37288 -8.53011 -14.5828 
3.37279 -8.53021 -14.5829 
3.37269 -8.53031 -14.583 
3.37259 -8.53041 -14.5831 
3.37249 -8.53051 -14.5832 
3.37239 -8.53061 -14.5833 
3.3723 -8.53071 -14.5834 
3.3722 -8.53081 -14.5835 
3.3721 -8.53091 -14.5836 
3.372 -8.53101 -14.5837 
3.3719 -8.53111 -14.5838 
3.3718 -8.53121 -14.5839 
3.37171 -8.53131 -14.584 
3.37161 -8.53141 -14.5841 
3.37151 -8.53151 -14.5842 
3.37141 -8.53161 -14.5843 
3.37131 -8.53171 -14.5844 
3.37122 -8.53181 -14.5845 
3.37112 -8.53191 -14.5846 
3.37102 -8.53201 -14.5847 
3.37092 -8.53211 -14.5848 
3.37082 -8.53221 -14.5849 
3.37072 -8.53231 -14.585 
3.37063 -8.53241 -14.5851 
3.37053 -8.53251 -14.5852 
3.37043 -8.53261 -14.5853 
3.37033 -8.53271 -14.5854 
3.37023 -8.53281 -14.5855 
3.37014 -8.53291 -14.5856 
3.37004 -8.53301 -14.5857 
3.36994 -8.53311 -14.5858 
3.36984 -8.53321 -14.5859 
3.36974 -8.53331 -14.586 
3.36965 -8.53341 -14.5861 
3.36955 -8.53351 -14.5862 
3.36945 -8.53361 -14.5863 
3.36935 -8.53371 -14.5864 
3.36925 -8.53381 -14.5865 
3.36915 -8.53391 -14.5866 
3.36906 -8.53401 -14.5867 
3.36896 -8.53411 -14.5868 
3.36886 -8.53421 -14.5869 
3.36876 -8.53431 -14.587 
3.36866 -8.53441 -14.5871 
3.36857 -8.53451 -14.5872 
3.36847 -8.53461 -14.5873 
3.36837 -8.53471 -14.5874 
3.36827 -8.53481 -14.5875 
3.36817 -8.53491 -14.5876 
3.36808 -8.53501 -14.5877 
3.36798 -8.53511 -14.5878 
3.36788 -8.53521 -14.5879 
3.36778 -8.53531 -14.588 
3.36768 -8.53541 -14.588 
3.36759 -8.53551 -14.5881 
3.36749 -8.53561 -14.5882 
3.36739 -8.53571 -14.5883 
3.36729 -8.53581 -14.5884 
3.36719 -8.53591 -14.5885 
3.3671 -8.53601 -14.5886 
3.367 -8.53611 -14.5887 
3.3669 -8.53621 -14.5888 
3.3668 -8.53631 -14.5889 
3.3667 -8.53641 -14.589 
3.36661 -8.53651 -14.5891 
3.36651 -8.53661 -14.5892 
3.36641 -8.53671 -14.5893 
3.36631 -8.53681 -14.5894 
3.36622 -8.53691 -14.5895 
3.36612 -8.53701 -14.5896 
3.36602 -8.53711 -14.5897 
3.36592 -8.53721 -14.5898 
3.36582 -8.53731 -14.5899 
3.36573 -8.53741 -14.59 
3.36563 -8.53751 -14.5901 
3.36553 -8.53761 -14.5902 
3.36543 -8.53771 -14.5903 
3.36533 -8.53781 -14.5904 
3.36524 -8.53791 -14.5905 
3.36514 -8.53801 -14.5906 
3.36504 -8.53811 -14.5907 
3.36494 -8.53821 -14.5908 
3.36484 -8.53831 -14.5909 
3.36475 -8.53841 -14.591 
3.36465 -8.53851 -14.5911 
3.36455 -8.53861 -14.5912 
3.36445 -8.53871 -14.5913 
3.36436 -8.53881 -14.5914 
3.36426 -8.53891 -14.5915 
3.36416 -8.53901 -14.5916 
3.36406 -8.53911 -14.5917 
3.36396 -8.53921 -14.5918 
3.36387 -8.53931 -14.5919 
3.36377 -8.53941 -14.592 
3.36367 -8.53951 -14.5921 
3.36357 -8.53961 -14.5922 
3.36348 -8.53971 -14.5923 
3.36338 -8.53981 -14.5924 
3.36328 -8.53991 -14.5925 
3.36318 -8.54001 -14.5926 
3.36308 -8.54011 -14.5927 
3.36299 -8.54021 -14.5928 
3.36289 -8.54031 -14.5929 
3.36279 -8.54041 -14.593 
3.36269 -8.54051 -14.5931 
3.3626 -8.54061 -14.5932 
3.3625 -8.54071 -14.5932 
3.3624 -8.54081 -14.5933 
3.3623 -8.54091 -14.5934 
3.36221 -8.54101 -14.5935 
3.36211 -8.54111 -14.5936 
3.36201 -8.54121 -14.5937 
3.36191 -8.54131 -14.5938 
3.36181 -8.54141 -14.5939 
3.36172 -8.54151 -14.594 
3.36162 -8.54161 -14.5941 
3.36152 -8.54171 -14.5942 
3.36142 -8.54181 -14.5943 
3.36133 -8.54191 -14.5944 
3.36123 -8.54201 -14.5945 
3.36113 -8.54211 -14.5946 
3.36103 -8.54221 -14.5947 
3.36094 -8.54231 -14.5948 
3.36084 -8.54241 -14.5949 
3.36074 -8.54251 -14.595 
3.36064 -8.54261 -14.5951 
3.36055 -8.54271 -14.5952 
3.36045 -8.54281 -14.5953 
3.36035 -8.54291 -14.5954 
3.36025 -8.54301 -14.5955 
3.36016 -8.54311 -14.5956 
3.36006 -8.54321 -14.5957 
3.35996 -8.54331 -14.5958 
3.35986 -8.54341 -14.5959 
3.35976 -8.54351 -14.596 
3.35967 -8.54361 -14.5961 
3.35957 -8.54371 -14.5962 
3.35947 -8.54381 -14.5963 
3.35937 -8.54391 -14.5964 
3.35928 -8.54401 -14.5965 
3.35918 -8.54411 -14.5966 
3.35908 -8.54421 -14.5967 
3.35898 -8.54431 -14.5968 
3.35889 -8.54441 -14.5969 
3.35879 -8.54451 -14.597 
3.35869 -8.54461 -14.5971 
3.35859 -8.54471 -14.5972 
3.3585 -8.54481 -14.5973 
3.3584 -8.54491 -14.5974 
3.3583 -8.54501 -14.5975 
3.3582 -8.54511 -14.5976 
3.35811 -8.54521 -14.5977 
3.35801 -8.54531 -14.5978 
3.35791 -8.54541 -14.5978 
3.35782 -8.54551 -14.5979 
3.35772 -8.54561 -14.598 
3.35762 -8.54571 -14.5981 
3.35752 -8.54581 -14.5982 
3.35743 -8.54591 -14.5983 
3.35733 -8.54601 -14.5984 
3.35723 -8.54611 -14.5985 
3.35713 -8.54621 -14.5986 
3.35704 -8.54631 -14.5987 
3.35694 -8.54641 -14.5988 
3.35684 -8.54651 -14.5989 
3.35674 -8.54661 -14.599 
3.35665 -8.54671 -14.5991 
3.35655 -8.54681 -14.5992 
3.35645 -8.54691 -14.5993 
3.35635 -8.54701 -14.5994 
3.35626 -8.54711 -14.5995 
3.35616 -8.54721 -14.5996 
3.35606 -8.54731 -14.5997 
3.35597 -8.54741 -14.5998 
3.35587 -8.54751 -14.5999 
3.35577 -8.54761 -14.6 
3.35567 -8.54771 -14.6001 
3.35558 -8.54781 -14.6002 
3.35548 -8.54791 -14.6003 
3.35538 -8.54801 -14.6004 
3.35528 -8.54811 -14.6005 
3.35519 -8.54821 -14.6006 
3.35509 -8.54831 -14.6007 
3.35499 -8.54841 -14.6008 
3.3549 -8.54851 -14.6009 
3.3548 -8.54861 -14.601 
3.3547 -8.54871 -14.6011 
3.3546 -8.54881 -14.6012 
3.35451 -8.54891 -14.6013 
3.35441 -8.54901 -14.6014 
3.35431 -8.54911 -14.6015 
3.35422 -8.54921 -14.6016 
3.35412 -8.54931 -14.6017 
3.35402 -8.54941 -14.6018 
3.35392 -8.54951 -14.6019 
3.35383 -8.54961 -14.602 
3.35373 -8.54971 -14.602 
3.35363 -8.54981 -14.6021 
3.35353 -8.54991 -14.6022 
3.35344 -8.55001 -14.6023 
3.35334 -8.55011 -14.6024 
3.35324 -8.55021 -14.6025 
3.35315 -8.55031 -14.6026 
3.35305 -8.55041 -14.6027 
3.35295 -8.55051 -14.6028 
3.35286 -8.55061 -14.6029 
3.35276 -8.55071 -14.603 
3.35266 -8.55081 -14.6031 
3.35256 -8.55091 -14.6032 
3.35247 -8.55101 -14.6033 
3.35237 -8.55111 -14.6034 
3.35227 -8.55121 -14.6035 
3.35218 -8.55131 -14.6036 
3.35208 -8.55141 -14.6037 
3.35198 -8.55151 -14.6038 
3.35188 -8.55161 -14.6039 
3.35179 -8.55171 -14.604 
3.35169 -8.55181 -14.6041 
3.35159 -8.55191 -14.6042 
3.3515 -8.55201 -14.6043 
3.3514 -8.55211 -14.6044 
3.3513 -8.55221 -14.6045 
3.35121 -8.55231 -14.6046 
3.35111 -8.55241 -14.6047 
3.35101 -8.55251 -14.6048 
3.35092 -8.55261 -14.6049 
3.35082 -8.55271 -14.605 
3.35072 -8.55281 -14.6051 
3.35062 -8.55291 -14.6052 
3.35053 -8.55301 -14.6053 
3.35043 -8.55311 -14.6054 
3.35033 -8.55321 -14.6055 
3.35024 -8.55331 -14.6056 
3.35014 -8.55341 -14.6057 
3.35004 -8.55351 -14.6058 
3.34995 -8.55361 -14.6058 
3.34985 -8.55371 -14.6059 
3.34975 -8.55381 -14.606 
3.34966 -8.55391 -14.6061 
3.34956 -8.55401 -14.6062 
3.34946 -8.55411 -14.6063 
3.34937 -8.55421 -14.6064 
3.34927 -8.55431 -14.6065 
3.34917 -8.55441 -14.6066 
3.34907 -8.55451 -14.6067 
3.34898 -8.55461 -14.6068 
3.34888 -8.55471 -14.6069 
3.34878 -8.55481 -14.607 
3.34869 -8.55491 -14.6071 
3.34859 -8.55501 -14.6072 
3.34849 -8.55511 -14.6073 
3.3484 -8.55521 -14.6074 
3.3483 -8.55531 -14.6075 
3.3482 -8.55541 -14.6076 
3.34811 -8.55551 -14.6077 
3.34801 -8.55561 -14.6078 
3.34791 -8.55571 -14.6079 
3.34782 -8.55581 -14.608 
3.34772 -8.55591 -14.6081 
3.34762 -8.55601 -14.6082 
3.34753 -8.55611 -14.6083 
3.34743 -8.55621 -14.6084 
3.34733 -8.55631 -14.6085 
3.34724 -8.55641 -14.6086 
3.34714 -8.55651 -14.6087 
3.34704 -8.55661 -14.6088 
3.34695 -8.55671 -14.6089 
3.34685 -8.55681 -14.609 
3.34675 -8.55691 -14.6091 
3.34666 -8.55701 -14.6092 
3.34656 -8.55711 -14.6093 
3.34646 -8.55721 -14.6094 
3.34637 -8.55731 -14.6094 
3.34627 -8.55741 -14.6095 
3.34618 -8.55751 -14.6096 
3.34608 -8.55761 -14.6097 
3.34598 -8.55771 -14.6098 
3.34589 -8.55781 -14.6099 
3.34579 -8.55791 -14.61 
3.34569 -8.55801 -14.6101 
3.3456 -8.55811 -14.6102 
3.3455 -8.55821 -14.6103 
3.3454 -8.55831 -14.6104 
3.34531 -8.55841 -14.6105 
3.34521 -8.55851 -14.6106 
3.34511 -8.55861 -14.6107 
3.34502 -8.55871 -14.6108 
3.34492 -8.55881 -14.6109 
3.34482 -8.55891 -14.611 
3.34473 -8.55901 -14.6111 
3.34463 -8.55911 -14.6112 
3.34454 -8.55921 -14.6113 
3.34444 -8.55931 -14.6114 
3.34434 -8.55941 -14.6115 
3.34425 -8.55951 -14.6116 
3.34415 -8.55961 -14.6117 
3.34405 -8.55971 -14.6118 
3.34396 -8.55981 -14.6119 
3.34386 -8.55991 -14.612 
3.34376 -8.56001 -14.6121 
3.34367 -8.56011 -14.6122 
3.34357 -8.56021 -14.6123 
3.34348 -8.56031 -14.6124 
3.34338 -8.56041 -14.6125 
3.34328 -8.56051 -14.6126 
3.34319 -8.56061 -14.6126 
3.34309 -8.56071 -14.6127 
3.34299 -8.56081 -14.6128 
3.3429 -8.56091 -14.6129 
3.3428 -8.56101 -14.613 
3.34271 -8.56111 -14.6131 
3.34261 -8.56121 -14.6132 
3.34251 -8.56131 -14.6133 
3.34242 -8.56141 -14.6134 
3.34232 -8.56151 -14.6135 
3.34222 -8.56161 -14.6136 
3.34213 -8.56171 -14.6137 
3.34203 -8.56181 -14.6138 
3.34194 -8.56191 -14.6139 
3.34184 -8.56201 -14.614 
3.34174 -8.56211 -14.6141 
3.34165 -8.56221 -14.6142 
3.34155 -8.56231 -14.6143 
3.34146 -8.56241 -14.6144 
3.34136 -8.56251 -14.6145 
3.34126 -8.56261 -14.6146 
3.34117 -8.56271 -14.6147 
3.34107 -8.56281 -14.6148 
3.34098 -8.56291 -14.6149 
3.34088 -8.56301 -14.615 
3.34078 -8.56311 -14.6151 
3.34069 -8.56321 -14.6152 
3.34059 -8.56331 -14.6153 
3.3405 -8.56341 -14.6154 
3.3404 -8.56351 -14.6155 
3.3403 -8.56361 -14.6156 
3.34021 -8.56371 -14.6157 
3.34011 -8.56381 -14.6157 
3.34002 -8.56391 -14.6158 
3.33992 -8.56401 -14.6159 
3.33982 -8.56411 -14.616 
3.33973 -8.56421 -14.6161 
3.33963 -8.56431 -14.6162 
3.33954 -8.56441 -14.6163 
3.33944 -8.56451 -14.6164 
3.33934 -8.56461 -14.6165 
3.33925 -8.56471 -14.6166 
3.33915 -8.56481 -14.6167 
3.33906 -8.56491 -14.6168 
3.33896 -8.56501 -14.6169 
3.33887 -8.56511 -14.617 
3.33877 -8.56521 -14.6171 
3.33867 -8.56531 -14.6172 
3.33858 -8.56541 -14.6173 
3.33848 -8.56551 -14.6174 
3.33839 -8.56561 -14.6175 
3.33829 -8.56571 -14.6176 
3.33819 -8.56581 -14.6177 
3.3381 -8.56591 -14.6178 
3.338 -8.56601 -14.6179 
3.33791 -8.56611 -14.618 
3.33781 -8.56621 -14.6181 
3.33772 -8.56631 -14.6182 
3.33762 -8.56641 -14.6183 
3.33752 -8.56651 -14.6184 
3.33743 -8.56661 -14.6185 
3.33733 -8.56671 -14.6185 
3.33724 -8.56681 -14.6186 
3.33714 -8.56691 -14.6187 
3.33705 -8.56701 -14.6188 
3.33695 -8.56711 -14.6189 
3.33686 -8.56721 -14.619 
3.33676 -8.56731 -14.6191 
3.33666 -8.56741 -14.6192 
3.33657 -8.56751 -14.6193 
3.33647 -8.56761 -14.6194 
3.33638 -8.56771 -14.6195 
3.33628 -8.56781 -14.6196 
3.33619 -8.56791 -14.6197 
3.33609 -8.56801 -14.6198 
3.336 -8.56811 -14.6199 
3.3359 -8.56821 -14.62 
3.3358 -8.56831 -14.6201 
3.33571 -8.56841 -14.6202 
3.33561 -8.56851 -14.6203 
3.33552 -8.56861 -14.6204 
3.33542 -8.56871 -14.6205 
3.33533 -8.56881 -14.6206 
3.33523 -8.56891 -14.6207 
3.33514 -8.56901 -14.6208 
3.33504 -8.56911 -14.6209 
3.33495 -8.56921 -14.621 
3.33485 -8.56931 -14.6211 
3.33476 -8.56941 -14.6212 
3.33466 -8.56951 -14.6212 
3.33456 -8.56961 -14.6213 
3.33447 -8.56971 -14.6214 
3.33437 -8.56981 -14.6215 
3.33428 -8.56991 -14.6216 
3.33418 -8.57001 -14.6217 
3.33409 -8.57011 -14.6218 
3.33399 -8.57021 -14.6219 
3.3339 -8.57031 -14.622 
3.3338 -8.57041 -14.6221 
3.33371 -8.57051 -14.6222 
3.33361 -8.57061 -14.6223 
3.33352 -8.57071 -14.6224 
3.33342 -8.57081 -14.6225 
3.33333 -8.57091 -14.6226 
3.33323 -8.57101 -14.6227 
3.33314 -8.57111 -14.6228 
3.33304 -8.57121 -14.6229 
3.33295 -8.57131 -14.623 
3.33285 -8.57141 -14.6231 
3.33276 -8.57151 -14.6232 
3.33266 -8.57161 -14.6233 
3.33257 -8.57171 -14.6234 
3.33247 -8.57181 -14.6235 
3.33238 -8.57191 -14.6236 
3.33228 -8.57201 -14.6237 
3.33219 -8.57211 -14.6237 
3.33209 -8.57221 -14.6238 
3.332 -8.57231 -14.6239 
3.3319 -8.57241 -14.624 
3.33181 -8.57251 -14.6241 
3.33171 -8.57261 -14.6242 
3.33162 -8.57271 -14.6243 
3.33152 -8.57281 -14.6244 
3.33143 -8.57291 -14.6245 
3.33133 -8.57301 -14.6246 
3.33124 -8.57311 -14.6247 
3.33114 -8.57321 -14.6248 
3.33105 -8.57331 -14.6249 
3.33095 -8.57341 -14.625 
3.33086 -8.57351 -14.6251 
3.33076 -8.57361 -14.6252 
3.33067 -8.57371 -14.6253 
3.33057 -8.57381 -14.6254 
3.33048 -8.57391 -14.6255 
3.33038 -8.57401 -14.6256 
3.33029 -8.57411 -14.6257 
3.33019 -8.57421 -14.6258 
3.3301 -8.57431 -14.6259 
3.33 -8.57441 -14.626 
3.32991 -8.57451 -14.6261 
3.32981 -8.57461 -14.6261 
3.32972 -8.57471 -14.6262 
3.32963 -8.57481 -14.6263 
3.32953 -8.57491 -14.6264 
3.32944 -8.57501 -14.6265 
3.32934 -8.57511 -14.6266 
3.32925 -8.57521 -14.6267 
3.32915 -8.57531 -14.6268 
3.32906 -8.57541 -14.6269 
3.32896 -8.57551 -14.627 
3.32887 -8.57561 -14.6271 
3.32877 -8.57571 -14.6272 
3.32868 -8.57581 -14.6273 
3.32858 -8.57591 -14.6274 
3.32849 -8.57601 -14.6275 
3.3284 -8.57611 -14.6276 
3.3283 -8.57621 -14.6277 
3.32821 -8.57631 -14.6278 
3.32811 -8.57641 -14.6279 
3.32802 -8.57651 -14.628 
3.32792 -8.57661 -14.6281 
3.32783 -8.57671 -14.6282 
3.32773 -8.57681 -14.6283 
3.32764 -8.57691 -14.6283 
3.32755 -8.57701 -14.6284 
3.32745 -8.57711 -14.6285 
3.32736 -8.57721 -14.6286 
3.32726 -8.57731 -14.6287 
3.32717 -8.57741 -14.6288 
3.32707 -8.57751 -14.6289 
3.32698 -8.57761 -14.629 
3.32689 -8.57771 -14.6291 
3.32679 -8.57781 -14.6292 
3.3267 -8.57791 -14.6293 
3.3266 -8.57801 -14.6294 
3.32651 -8.57811 -14.6295 
3.32641 -8.57821 -14.6296 
3.32632 -8.57831 -14.6297 
3.32623 -8.57841 -14.6298 
3.32613 -8.57851 -14.6299 
3.32604 -8.57861 -14.63 
3.32594 -8.57871 -14.6301 
3.32585 -8.57881 -14.6302 
3.32576 -8.57891 -14.6303 
3.32566 -8.57901 -14.6304 
3.32557 -8.57911 -14.6305 
3.32547 -8.57921 -14.6305 
3.32538 -8.57931 -14.6306 
3.32529 -8.57941 -14.6307 
3.32519 -8.57951 -14.6308 
3.3251 -8.57961 -14.6309 
3.325 -8.57971 -14.631 
3.32491 -8.57981 -14.6311 
3.32482 -8.57991 -14.6312 
3.32472 -8.58001 -14.6313 
3.32463 -8.58011 -14.6314 
3.32453 -8.58021 -14.6315 
3.32444 -8.58031 -14.6316 
3.32435 -8.58041 -14.6317 
3.32425 -8.58051 -14.6318 
3.32416 -8.58061 -14.6319 
3.32406 -8.58071 -14.632 
3.32397 -8.58081 -14.6321 
3.32388 -8.58091 -14.6322 
3.32378 -8.58101 -14.6323 
3.32369 -8.58111 -14.6324 
3.3236 -8.58121 -14.6325 
3.3235 -8.58131 -14.6325 
3.32341 -8.58141 -14.6326 
3.32331 -8.58151 -14.6327 
3.32322 -8.58161 -14.6328 
3.32313 -8.58171 -14.6329 
3.32303 -8.58181 -14.633 
3.32294 -8.58191 -14.6331 
3.32285 -8.58201 -14.6332 
3.32275 -8.58211 -14.6333 
3.32266 -8.58221 -14.6334 
3.32257 -8.58231 -14.6335 
3.32247 -8.58241 -14.6336 
3.32238 -8.58251 -14.6337 
3.32229 -8.58261 -14.6338 
3.32219 -8.58271 -14.6339 
3.3221 -8.58281 -14.634 
3.322 -8.58291 -14.6341 
3.32191 -8.58301 -14.6342 
3.32182 -8.58311 -14.6343 
3.32172 -8.58321 -14.6344 
3.32163 -8.58331 -14.6344 
3.32154 -8.58341 -14.6345 
3.32144 -8.58351 -14.6346 
3.32135 -8.58361 -14.6347 
3.32126 -8.58371 -14.6348 
3.32116 -8.58381 -14.6349 
3.32107 -8.58391 -14.635 
3.32098 -8.58401 -14.6351 
3.32088 -8.58411 -14.6352 
3.32079 -8.58421 -14.6353 
3.3207 -8.58431 -14.6354 
3.3206 -8.58441 -14.6355 
3.32051 -8.58451 -14.6356 
3.32042 -8.58461 -14.6357 
3.32033 -8.58471 -14.6358 
3.32023 -8.58481 -14.6359 
3.32014 -8.58491 -14.636 
3.32005 -8.58501 -14.6361 
3.31995 -8.58511 -14.6362 
3.31986 -8.58521 -14.6363 
3.31977 -8.58531 -14.6363 
3.31967 -8.58541 -14.6364 
3.31958 -8.58551 -14.6365 
3.31949 -8.58561 -14.6366 
3.31939 -8.58571 -14.6367 
3.3193 -8.58581 -14.6368 
3.31921 -8.58591 -14.6369 
3.31912 -8.58601 -14.637 
3.31902 -8.58611 -14.6371 
3.31893 -8.58621 -14.6372 
3.31884 -8.58631 -14.6373 
3.31874 -8.58641 -14.6374 
3.31865 -8.58651 -14.6375 
3.31856 -8.58661 -14.6376 
3.31847 -8.58671 -14.6377 
3.31837 -8.58681 -14.6378 
3.31828 -8.58691 -14.6379 
3.31819 -8.58701 -14.638 
3.3181 -8.58711 -14.6381 
3.318 -8.58721 -14.6381 
3.31791 -8.58731 -14.6382 
3.31782 -8.58741 -14.6383 
3.31772 -8.58751 -14.6384 
3.31763 -8.58761 -14.6385 
3.31754 -8.58771 -14.6386 
3.31745 -8.58781 -14.6387 
3.31735 -8.58791 -14.6388 
3.31726 -8.58801 -14.6389 
3.31717 -8.58811 -14.639 
3.31708 -8.58821 -14.6391 
3.31698 -8.58831 -14.6392 
3.31689 -8.58841 -14.6393 
3.3168 -8.58851 -14.6394 
3.31671 -8.58861 -14.6395 
3.31661 -8.58871 -14.6396 
3.31652 -8.58881 -14.6397 
3.31643 -8.58891 -14.6398 
3.31634 -8.58901 -14.6398 
3.31624 -8.58911 -14.6399 
3.31615 -8.58921 -14.64 
3.31606 -8.58931 -14.6401 
3.31597 -8.58941 -14.6402 
3.31588 -8.58951 -14.6403 
3.31578 -8.58961 -14.6404 
3.31569 -8.58971 -14.6405 
3.3156 -8.58981 -14.6406 
3.31551 -8.58991 -14.6407 
3.31541 -8.59001 -14.6408 
3.31532 -8.59011 -14.6409 
3.31523 -8.59021 -14.641 
3.31514 -8.59031 -14.6411 
3.31505 -8.59041 -14.6412 
3.31495 -8.59051 -14.6413 
3.31486 -8.59061 -14.6414 
3.31477 -8.59071 -14.6414 
3.31468 -8.59081 -14.6415 
3.31459 -8.59091 -14.6416 
3.31449 -8.59101 -14.6417 
3.3144 -8.59111 -14.6418 
3.31431 -8.59121 -14.6419 
3.31422 -8.59131 -14.642 
3.31413 -8.59141 -14.6421 
3.31403 -8.59151 -14.6422 
3.31394 -8.59161 -14.6423 
3.31385 -8.59171 -14.6424 
3.31376 -8.59181 -14.6425 
3.31367 -8.59191 -14.6426 
3.31358 -8.59201 -14.6427 
3.31348 -8.59211 -14.6428 
3.31339 -8.59221 -14.6429 
3.3133 -8.59231 -14.643 
3.31321 -8.59241 -14.643 
3.31312 -8.59251 -14.6431 
3.31303 -8.59261 -14.6432 
3.31293 -8.59271 -14.6433 
3.31284 -8.59281 -14.6434 
3.31275 -8.59291 -14.6435 
3.31266 -8.59301 -14.6436 
3.31257 -8.59311 -14.6437 
3.31248 -8.59321 -14.6438 
3.31238 -8.59331 -14.6439 
3.31229 -8.59341 -14.644 
3.3122 -8.59351 -14.6441 
3.31211 -8.59361 -14.6442 
3.31202 -8.59371 -14.6443 
3.31193 -8.59381 -14.6444 
3.31184 -8.59391 -14.6445 
3.31174 -8.59401 -14.6445 
3.31165 -8.59411 -14.6446 
3.31156 -8.59421 -14.6447 
3.31147 -8.59431 -14.6448 
3.31138 -8.59441 -14.6449 
3.31129 -8.59451 -14.645 
3.3112 -8.59461 -14.6451 
3.31111 -8.59471 -14.6452 
3.31102 -8.59481 -14.6453 
3.31092 -8.59491 -14.6454 
3.31083 -8.59501 -14.6455 
3.31074 -8.59511 -14.6456 
3.31065 -8.59521 -14.6457 
3.31056 -8.59531 -14.6458 
3.31047 -8.59541 -14.6459 
3.31038 -8.59551 -14.6459 
3.31029 -8.59561 -14.646 
3.3102 -8.59571 -14.6461 
3.31011 -8.59581 -14.6462 
3.31001 -8.59591 -14.6463 
3.30992 -8.59601 -14.6464 
3.30983 -8.59611 -14.6465 
3.30974 -8.59621 -14.6466 
3.30965 -8.59631 -14.6467 
3.30956 -8.59641 -14.6468 
3.30947 -8.59651 -14.6469 
3.30938 -8.59661 -14.647 
3.30929 -8.59671 -14.6471 
3.3092 -8.59681 -14.6472 
3.30911 -8.59691 -14.6473 
3.30902 -8.59701 -14.6473 
3.30893 -8.59711 -14.6474 
3.30883 -8.59721 -14.6475 
3.30874 -8.59731 -14.6476 
3.30865 -8.59741 -14.6477 
3.30856 -8.59751 -14.6478 
3.30847 -8.59761 -14.6479 
3.30838 -8.59771 -14.648 
3.30829 -8.59781 -14.6481 
3.3082 -8.59791 -14.6482 
3.30811 -8.59801 -14.6483 
3.30802 -8.59811 -14.6484 
3.30793 -8.59821 -14.6485 
3.30784 -8.59831 -14.6486 
3.30775 -8.59841 -14.6487 
3.30766 -8.59851 -14.6487 
3.30757 -8.59861 -14.6488 
3.30748 -8.59871 -14.6489 
3.30739 -8.59881 -14.649 
3.3073 -8.59891 -14.6491 
3.30721 -8.59901 -14.6492 
3.30712 -8.59911 -14.6493 
3.30703 -8.59921 -14.6494 
3.30694 -8.59931 -14.6495 
3.30685 -8.59941 -14.6496 
3.30676 -8.59951 -14.6497 
3.30667 -8.59961 -14.6498 
3.30658 -8.59971 -14.6499 
3.30649 -8.59981 -14.65 
3.3064 -8.59991 -14.65 
3.30631 -8.60001 -14.6501 
3.30622 -8.60011 -14.6502 
3.30613 -8.60021 -14.6503 
3.30604 -8.60031 -14.6504 
3.30595 -8.60041 -14.6505 
3.30586 -8.60051 -14.6506 
3.30577 -8.60061 -14.6507 
3.30568 -8.60071 -14.6508 
3.30559 -8.60081 -14.6509 
3.3055 -8.60091 -14.651 
3.30541 -8.60101 -14.6511 
3.30532 -8.60111 -14.6512 
3.30523 -8.60121 -14.6513 
3.30514 -8.60131 -14.6513 
3.30505 -8.60141 -14.6514 
3.30496 -8.60151 -14.6515 
3.30488 -8.60161 -14.6516 
3.30479 -8.60171 -14.6517 
3.3047 -8.60181 -14.6518 
3.30461 -8.60191 -14.6519 
3.30452 -8.60201 -14.652 
3.30443 -8.60211 -14.6521 
3.30434 -8.60221 -14.6522 
3.30425 -8.60231 -14.6523 
3.30416 -8.60241 -14.6524 
3.30407 -8.60251 -14.6525 
3.30398 -8.60261 -14.6525 
3.30389 -8.60271 -14.6526 
3.3038 -8.60281 -14.6527 
3.30371 -8.60291 -14.6528 
3.30363 -8.60301 -14.6529 
3.30354 -8.60311 -14.653 
3.30345 -8.60321 -14.6531 
3.30336 -8.60331 -14.6532 
3.30327 -8.60341 -14.6533 
3.30318 -8.60351 -14.6534 
3.30309 -8.60361 -14.6535 
3.303 -8.60371 -14.6536 
3.30291 -8.60381 -14.6537 
3.30283 -8.60391 -14.6537 
3.30274 -8.60401 -14.6538 
3.30265 -8.60411 -14.6539 
3.30256 -8.60421 -14.654 
3.30247 -8.60431 -14.6541 
3.30238 -8.60441 -14.6542 
3.30229 -8.60451 -14.6543 
3.30221 -8.60461 -14.6544 
3.30212 -8.60471 -14.6545 
3.30203 -8.60481 -14.6546 
3.30194 -8.60491 -14.6547 
3.30185 -8.60501 -14.6548 
3.30176 -8.60511 -14.6548 
3.30167 -8.60521 -14.6549 
3.30159 -8.60531 -14.655 
3.3015 -8.60541 -14.6551 
3.30141 -8.60551 -14.6552 
3.30132 -8.60561 -14.6553 
3.30123 -8.60571 -14.6554 
3.30114 -8.60581 -14.6555 
3.30106 -8.60591 -14.6556 
3.30097 -8.60601 -14.6557 
3.30088 -8.60611 -14.6558 
3.30079 -8.60621 -14.6559 
3.3007 -8.60631 -14.6559 
3.30062 -8.60641 -14.656 
3.30053 -8.60651 -14.6561 
3.30044 -8.60661 -14.6562 
3.30035 -8.60671 -14.6563 
3.30026 -8.60681 -14.6564 
3.30018 -8.60691 -14.6565 
3.30009 -8.60701 -14.6566 
3.3 -8.60711 -14.6567 
3.29991 -8.60721 -14.6568 
3.29983 -8.60731 -14.6569 
3.29974 -8.60741 -14.657 
3.29965 -8.60751 -14.657 
3.29956 -8.60761 -14.6571 
3.29948 -8.60771 -14.6572 
3.29939 -8.60781 -14.6573 
3.2993 -8.60791 -14.6574 
3.29921 -8.60801 -14.6575 
3.29913 -8.60811 -14.6576 
3.29904 -8.60821 -14.6577 
3.29895 -8.60831 -14.6578 
3.29886 -8.60841 -14.6579 
3.29878 -8.60851 -14.658 
3.29869 -8.60861 -14.6581 
3.2986 -8.60871 -14.6581 
3.29851 -8.60881 -14.6582 
3.29843 -8.60891 -14.6583 
3.29834 -8.60901 -14.6584 
3.29825 -8.60911 -14.6585 
3.29817 -8.60921 -14.6586 
3.29808 -8.60931 -14.6587 
3.29799 -8.60941 -14.6588 
3.2979 -8.60951 -14.6589 
3.29782 -8.60961 -14.659 
3.29773 -8.60971 -14.6591 
3.29764 -8.60981 -14.6591 
3.29756 -8.60991 -14.6592 
3.29747 -8.61001 -14.6593 
3.29738 -8.61011 -14.6594 
3.2973 -8.61021 -14.6595 
3.29721 -8.61031 -14.6596 
3.29712 -8.61041 -14.6597 
3.29704 -8.61051 -14.6598 
3.29695 -8.61061 -14.6599 
3.29686 -8.61071 -14.66 
3.29678 -8.61081 -14.6601 
3.29669 -8.61091 -14.6601 
3.2966 -8.61101 -14.6602 
3.29652 -8.61111 -14.6603 
3.29643 -8.61121 -14.6604 
3.29634 -8.61131 -14.6605 
3.29626 -8.61141 -14.6606 
3.29617 -8.61151 -14.6607 
3.29609 -8.61161 -14.6608 
3.296 -8.61171 -14.6609 
3.29591 -8.61181 -14.661 
3.29583 -8.61191 -14.661 
3.29574 -8.61201 -14.6611 
3.29565 -8.61211 -14.6612 
3.29557 -8.61221 -14.6613 
3.29548 -8.61231 -14.6614 
3.2954 -8.61241 -14.6615 
3.29531 -8.61251 -14.6616 
3.29523 -8.61261 -14.6617 
3.29514 -8.61271 -14.6618 
3.29505 -8.61281 -14.6619 
3.29497 -8.61291 -14.662 
3.29488 -8.61301 -14.662 
3.2948 -8.61311 -14.6621 
3.29471 -8.61321 -14.6622 
3.29463 -8.61331 -14.6623 
3.29454 -8.61341 -14.6624 
3.29445 -8.61351 -14.6625 
3.29437 -8.61361 -14.6626 
3.29428 -8.61371 -14.6627 
3.2942 -8.61381 -14.6628 
3.29411 -8.61391 -14.6629 
3.29403 -8.61401 -14.6629 
3.29394 -8.61411 -14.663 
3.29386 -8.61421 -14.6631 
3.29377 -8.61431 -14.6632 
3.29369 -8.61441 -14.6633 
3.2936 -8.61451 -14.6634 
3.29352 -8.61461 -14.6635 
3.29343 -8.61471 -14.6636 
3.29335 -8.61481 -14.6637 
3.29326 -8.61491 -14.6638 
3.29318 -8.61501 -14.6638 
3.29309 -8.61511 -14.6639 
3.29301 -8.61521 -14.664 
3.29292 -8.61531 -14.6641 
3.29284 -8.61541 -14.6642 
3.29275 -8.61551 -14.6643 
3.29267 -8.61561 -14.6644 
3.29258 -8.61571 -14.6645 
3.2925 -8.61581 -14.6646 
3.29241 -8.61591 -14.6647 
3.29233 -8.61601 -14.6647 
3.29224 -8.61611 -14.6648 
3.29216 -8.61621 -14.6649 
3.29208 -8.61631 -14.665 
3.29199 -8.61641 -14.6651 
3.29191 -8.61651 -14.6652 
3.29182 -8.61661 -14.6653 
3.29174 -8.61671 -14.6654 
3.29165 -8.61681 -14.6655 
3.29157 -8.61691 -14.6655 
3.29149 -8.61701 -14.6656 
3.2914 -8.61711 -14.6657 
3.29132 -8.61721 -14.6658 
3.29123 -8.61731 -14.6659 
3.29115 -8.61741 -14.666 
3.29107 -8.61751 -14.6661 
3.29098 -8.61761 -14.6662 
3.2909 -8.61771 -14.6663 
3.29081 -8.61781 -14.6663 
3.29073 -8.61791 -14.6664 
3.29065 -8.61801 -14.6665 
3.29056 -8.61811 -14.6666 
3.29048 -8.61821 -14.6667 
3.2904 -8.61831 -14.6668 
3.29031 -8.61841 -14.6669 
3.29023 -8.61851 -14.667 
3.29015 -8.61861 -14.6671 
3.29006 -8.61871 -14.6671 
3.28998 -8.61881 -14.6672 
3.2899 -8.61891 -14.6673 
3.28981 -8.61901 -14.6674 
3.28973 -8.61911 -14.6675 
3.28965 -8.61921 -14.6676 
3.28956 -8.61931 -14.6677 
3.28948 -8.61941 -14.6678 
3.2894 -8.61951 -14.6679 
3.28932 -8.61961 -14.6679 
3.28923 -8.61971 -14.668 
3.28915 -8.61981 -14.6681 
3.28907 -8.61991 -14.6682 
3.28898 -8.62001 -14.6683 
3.2889 -8.62011 -14.6684 
3.28882 -8.62021 -14.6685 
3.28874 -8.62031 -14.6686 
3.28865 -8.62041 -14.6687 
3.28857 -8.62051 -14.6687 
3.28849 -8.62061 -14.6688 
3.28841 -8.62071 -14.6689 
3.28832 -8.62081 -14.669 
3.28824 -8.62091 -14.6691 
3.28816 -8.62101 -14.6692 
3.28808 -8.62111 -14.6693 
3.28799 -8.62121 -14.6694 
3.28791 -8.62131 -14.6694 
3.28783 -8.62141 -14.6695 
3.28775 -8.62151 -14.6696 
3.28767 -8.62161 -14.6697 
3.28758 -8.62171 -14.6698 
3.2875 -8.62181 -14.6699 
3.28742 -8.62191 -14.67 
3.28734 -8.62201 -14.6701 
3.28726 -8.62211 -14.6702 
3.28718 -8.62221 -14.6702 
3.28709 -8.62231 -14.6703 
3.28701 -8.62241 -14.6704 
3.28693 -8.62251 -14.6705 
3.28685 -8.62261 -14.6706 
3.28677 -8.62271 -14.6707 
3.28669 -8.62281 -14.6708 
3.28661 -8.62291 -14.6709 
3.28652 -8.62301 -14.6709 
3.28644 -8.62311 -14.671 
3.28636 -8.62321 -14.6711 
3.28628 -8.62331 -14.6712 
3.2862 -8.62341 -14.6713 
3.28612 -8.62351 -14.6714 
3.28604 -8.62361 -14.6715 
3.28596 -8.62371 -14.6716 
3.28588 -8.62381 -14.6716 
3.2858 -8.62391 -14.6717 
3.28571 -8.62401 -14.6718 
3.28563 -8.62411 -14.6719 
3.28555 -8.62421 -14.672 
3.28547 -8.62431 -14.6721 
3.28539 -8.62441 -14.6722 
3.28531 -8.62451 -14.6723 
3.28523 -8.62461 -14.6723 
3.28515 -8.62471 -14.6724 
3.28507 -8.62481 -14.6725 
3.28499 -8.62491 -14.6726 
3.28491 -8.62501 -14.6727 
3.28483 -8.62511 -14.6728 
3.28475 -8.62521 -14.6729 
3.28467 -8.62531 -14.6729 
3.28459 -8.62541 -14.673 
3.28451 -8.62551 -14.6731 
3.28443 -8.62561 -14.6732 
3.28435 -8.62571 -14.6733 
3.28427 -8.62581 -14.6734 
3.28419 -8.62591 -14.6735 
3.28411 -8.62601 -14.6736 
3.28403 -8.62611 -14.6736 
3.28395 -8.62621 -14.6737 
3.28387 -8.62631 -14.6738 
3.28379 -8.62641 -14.6739 
3.28371 -8.62651 -14.674 
3.28364 -8.62661 -14.6741 
3.28356 -8.62671 -14.6742 
3.28348 -8.62681 -14.6742 
3.2834 -8.62691 -14.6743 
3.28332 -8.62701 -14.6744 
3.28324 -8.62711 -14.6745 
3.28316 -8.62721 -14.6746 
3.28308 -8.62731 -14.6747 
3.283 -8.62741 -14.6748 
3.28292 -8.62751 -14.6749 
3.28285 -8.62761 -14.6749 
3.28277 -8.62771 -14.675 
3.28269 -8.62781 -14.6751 
3.28261 -8.62791 -14.6752 
3.28253 -8.62801 -14.6753 
3.28245 -8.62811 -14.6754 
3.28237 -8.62821 -14.6755 
3.2823 -8.62831 -14.6755 
3.28222 -8.62841 -14.6756 
3.28214 -8.62851 -14.6757 
3.28206 -8.62861 -14.6758 
3.28198 -8.62871 -14.6759 
3.28191 -8.62881 -14.676 
3.28183 -8.62891 -14.6761 
3.28175 -8.62901 -14.6761 
3.28167 -8.62911 -14.6762 
3.2816 -8.62921 -14.6763 
3.28152 -8.62931 -14.6764 
3.28144 -8.62941 -14.6765 
3.28136 -8.62951 -14.6766 
3.28128 -8.62961 -14.6767 
3.28121 -8.62971 -14.6767 
3.28113 -8.62981 -14.6768 
3.28105 -8.62991 -14.6769 
3.28098 -8.63001 -14.677 
3.2809 -8.63011 -14.6771 
3.28082 -8.63021 -14.6772 
3.28074 -8.63031 -14.6773 
3.28067 -8.63041 -14.6773 
3.28059 -8.63051 -14.6774 
3.28051 -8.63061 -14.6775 
3.28044 -8.63071 -14.6776 
3.28036 -8.63081 -14.6777 
3.28028 -8.63091 -14.6778 
3.28021 -8.63101 -14.6778 
3.28013 -8.63111 -14.6779 
3.28005 -8.63121 -14.678 
3.27998 -8.63131 -14.6781 
3.2799 -8.63141 -14.6782 
3.27983 -8.63151 -14.6783 
3.27975 -8.63161 -14.6784 
3.27967 -8.63171 -14.6784 
3.2796 -8.63181 -14.6785 
3.27952 -8.63191 -14.6786 
3.27945 -8.63201 -14.6787 
3.27937 -8.63211 -14.6788 
3.27929 -8.63221 -14.6789 
3.27922 -8.63231 -14.6789 
3.27914 -8.63241 -14.679 
3.27907 -8.63251 -14.6791 
3.27899 -8.63261 -14.6792 
3.27892 -8.63271 -14.6793 
3.27884 -8.63281 -14.6794 
3.27877 -8.63291 -14.6795 
3.27869 -8.63301 -14.6795 
3.27862 -8.63311 -14.6796 
3.27854 -8.63321 -14.6797 
3.27847 -8.63331 -14.6798 
3.27839 -8.63341 -14.6799 
3.27832 -8.63351 -14.68 
3.27824 -8.63361 -14.68 
3.27817 -8.63371 -14.6801 
3.27809 -8.63381 -14.6802 
3.27802 -8.63391 -14.6803 
3.27794 -8.63401 -14.6804 
3.27787 -8.63411 -14.6805 
3.2778 -8.63421 -14.6805 
3.27772 -8.63431 -14.6806 
3.27765 -8.63441 -14.6807 
3.27757 -8.63451 -14.6808 
3.2775 -8.63461 -14.6809 
3.27743 -8.63471 -14.681 
3.27735 -8.63481 -14.681 
3.27728 -8.63491 -14.6811 
3.27721 -8.63501 -14.6812 
3.27713 -8.63511 -14.6813 
3.27706 -8.63521 -14.6814 
3.27698 -8.63531 -14.6815 
3.27691 -8.63541 -14.6815 
3.27684 -8.63551 -14.6816 
3.27677 -8.63561 -14.6817 
3.27669 -8.63571 -14.6818 
3.27662 -8.63581 -14.6819 
3.27655 -8.63591 -14.682 
3.27647 -8.63601 -14.682 
3.2764 -8.63611 -14.6821 
3.27633 -8.63621 -14.6822 
3.27626 -8.63631 -14.6823 
3.27618 -8.63641 -14.6824 
3.27611 -8.63651 -14.6824 
3.27604 -8.63661 -14.6825 
3.27597 -8.63671 -14.6826 
3.27589 -8.63681 -14.6827 
3.27582 -8.63691 -14.6828 
3.27575 -8.63701 -14.6829 
3.27568 -8.63711 -14.6829 
3.27561 -8.63721 -14.683 
3.27553 -8.63731 -14.6831 
3.27546 -8.63741 -14.6832 
3.27539 -8.63751 -14.6833 
3.27532 -8.63761 -14.6834 
3.27525 -8.63771 -14.6834 
3.27518 -8.63781 -14.6835 
3.27511 -8.63791 -14.6836 
3.27503 -8.63801 -14.6837 
3.27496 -8.63811 -14.6838 
3.27489 -8.63821 -14.6838 
3.27482 -8.63831 -14.6839 
3.27475 -8.63841 -14.684 
3.27468 -8.63851 -14.6841 
3.27461 -8.63861 -14.6842 
3.27454 -8.63871 -14.6843 
3.27447 -8.63881 -14.6843 
3.2744 -8.63891 -14.6844 
3.27433 -8.63901 -14.6845 
3.27426 -8.63911 -14.6846 
3.27419 -8.63921 -14.6847 
3.27412 -8.63931 -14.6847 
3.27405 -8.63941 -14.6848 
3.27398 -8.63951 -14.6849 
3.27391 -8.63961 -14.685 
3.27384 -8.63971 -14.6851 
3.27377 -8.63981 -14.6851 
3.2737 -8.63991 -14.6852 
3.27363 -8.64001 -14.6853 
3.27356 -8.64011 -14.6854 
3.27349 -8.64021 -14.6855 
3.27342 -8.64031 -14.6855 
3.27335 -8.64041 -14.6856 
3.27328 -8.64051 -14.6857 
3.27322 -8.64061 -14.6858 
3.27315 -8.64071 -14.6859 
3.27308 -8.64081 -14.6859 
3.27301 -8.64091 -14.686 
3.27294 -8.64101 -14.6861 
3.27287 -8.64111 -14.6862 
3.2728 -8.64121 -14.6863 
3.27274 -8.64131 -14.6863 
3.27267 -8.64141 -14.6864 
3.2726 -8.64151 -14.6865 
3.27253 -8.64161 -14.6866 
3.27247 -8.64171 -14.6867 
3.2724 -8.64181 -14.6867 
3.27233 -8.64191 -14.6868 
3.27226 -8.64201 -14.6869 
3.2722 -8.64211 -14.687 
3.27213 -8.64221 -14.6871 
3.27206 -8.64231 -14.6871 
3.27199 -8.64241 -14.6872 
3.27193 -8.64251 -14.6873 
3.27186 -8.64261 -14.6874 
3.27179 -8.64271 -14.6875 
3.27173 -8.64281 -14.6875 
3.27166 -8.64291 -14.6876 
3.27159 -8.64301 -14.6877 
3.27153 -8.64311 -14.6878 
3.27146 -8.64321 -14.6879 
3.2714 -8.64331 -14.6879 
3.27133 -8.64341 -14.688 
3.27126 -8.64351 -14.6881 
3.2712 -8.64361 -14.6882 
3.27113 -8.64371 -14.6883 
3.27107 -8.64381 -14.6883 
3.271 -8.64391 -14.6884 
3.27094 -8.64401 -14.6885 
3.27087 -8.64411 -14.6886 
3.27081 -8.64421 -14.6886 
3.27074 -8.64431 -14.6887 
3.27068 -8.64441 -14.6888 
3.27061 -8.64451 -14.6889 
3.27055 -8.64461 -14.689 
3.27048 -8.64471 -14.689 
3.27042 -8.64481 -14.6891 
3.27035 -8.64491 -14.6892 
3.27029 -8.64501 -14.6893 
3.27023 -8.64511 -14.6893 
3.27016 -8.64521 -14.6894 
3.2701 -8.64531 -14.6895 
3.27003 -8.64541 -14.6896 
3.26997 -8.64551 -14.6897 
3.26991 -8.64561 -14.6897 
3.26984 -8.64571 -14.6898 
3.26978 -8.64581 -14.6899 
3.26972 -8.64591 -14.69 
3.26965 -8.64601 -14.69 
3.26959 -8.64611 -14.6901 
3.26953 -8.64621 -14.6902 
3.26947 -8.64631 -14.6903 
3.2694 -8.64641 -14.6903 
3.26934 -8.64651 -14.6904 
3.26928 -8.64661 -14.6905 
3.26922 -8.64671 -14.6906 
3.26915 -8.64681 -14.6907 
3.26909 -8.64691 -14.6907 
3.26903 -8.64701 -14.6908 
3.26897 -8.64711 -14.6909 
3.26891 -8.64721 -14.691 
3.26885 -8.64731 -14.691 
3.26878 -8.64741 -14.6911 
3.26872 -8.64751 -14.6912 
3.26866 -8.64761 -14.6913 
3.2686 -8.64771 -14.6913 
3.26854 -8.64781 -14.6914 
3.26848 -8.64791 -14.6915 
3.26842 -8.64801 -14.6916 
3.26836 -8.64811 -14.6916 
3.2683 -8.64821 -14.6917 
3.26824 -8.64831 -14.6918 
3.26818 -8.64841 -14.6919 
3.26812 -8.64851 -14.6919 
3.26806 -8.64861 -14.692 
3.268 -8.64871 -14.6921 
3.26794 -8.64881 -14.6922 
3.26788 -8.64891 -14.6922 
3.26782 -8.64901 -14.6923 
3.26776 -8.64911 -14.6924 
3.2677 -8.64921 -14.6925 
3.26764 -8.64931 -14.6925 
3.26759 -8.64941 -14.6926 
3.26753 -8.64951 -14.6927 
3.26747 -8.64961 -14.6928 
3.26741 -8.64971 -14.6928 
3.26735 -8.64981 -14.6929 
3.2673 -8.64991 -14.693 
3.26724 -8.65001 -14.6931 
3.26718 -8.65011 -14.6931 
3.26712 -8.65021 -14.6932 
3.26706 -8.65031 -14.6933 
3.26701 -8.65041 -14.6934 
3.26695 -8.65051 -14.6934 
3.26689 -8.65061 -14.6935 
3.26684 -8.65071 -14.6936 
3.26678 -8.65081 -14.6936 
3.26672 -8.65091 -14.6937 
3.26667 -8.65101 -14.6938 
3.26661 -8.65111 -14.6939 
3.26656 -8.65121 -14.6939 
3.2665 -8.65131 -14.694 
3.26644 -8.65141 -14.6941 
3.26639 -8.65151 -14.6942 
3.26633 -8.65161 -14.6942 
3.26628 -8.65171 -14.6943 
3.26622 -8.65181 -14.6944 
3.26617 -8.65191 -14.6944 
3.26611 -8.65201 -14.6945 
3.26606 -8.65211 -14.6946 
3.266 -8.65221 -14.6947 
3.26595 -8.65231 -14.6947 
3.2659 -8.65241 -14.6948 
3.26584 -8.65251 -14.6949 
3.26579 -8.65261 -14.6949 
3.26573 -8.65271 -14.695 
3.26568 -8.65281 -14.6951 
3.26563 -8.65291 -14.6952 
3.26557 -8.65301 -14.6952 
3.26552 -8.65311 -14.6953 
3.26547 -8.65321 -14.6954 
3.26542 -8.65331 -14.6954 
3.26536 -8.65341 -14.6955 
3.26531 -8.65351 -14.6956 
3.26526 -8.65361 -14.6957 
3.26521 -8.65371 -14.6957 
3.26515 -8.65381 -14.6958 
3.2651 -8.65391 -14.6959 
3.26505 -8.65401 -14.6959 
3.265 -8.65411 -14.696 
3.26495 -8.65421 -14.6961 
3.2649 -8.65431 -14.6961 
3.26485 -8.65441 -14.6962 
3.2648 -8.65451 -14.6963 
3.26475 -8.65461 -14.6964 
3.2647 -8.65471 -14.6964 
3.26465 -8.65481 -14.6965 
3.2646 -8.65491 -14.6966 
3.26455 -8.65501 -14.6966 
3.2645 -8.65511 -14.6967 
3.26445 -8.65521 -14.6968 
3.2644 -8.65531 -14.6968 
3.26435 -8.65541 -14.6969 
3.2643 -8.65551 -14.697 
3.26425 -8.65561 -14.697 
3.2642 -8.65571 -14.6971 
3.26416 -8.65581 -14.6972 
3.26411 -8.65591 -14.6973 
3.26406 -8.65601 -14.6973 
3.26401 -8.65611 -14.6974 
3.26397 -8.65621 -14.6975 
3.26392 -8.65631 -14.6975 
3.26387 -8.65641 -14.6976 
3.26383 -8.65651 -14.6977 
3.26378 -8.65661 -14.6977 
3.26373 -8.65671 -14.6978 
3.26369 -8.65681 -14.6979 
3.26364 -8.65691 -14.6979 
3.26359 -8.65701 -14.698 
3.26355 -8.65711 -14.6981 
3.2635 -8.65721 -14.6981 
3.26346 -8.65731 -14.6982 
3.26341 -8.65741 -14.6983 
3.26337 -8.65751 -14.6983 
3.26332 -8.65761 -14.6984 
3.26328 -8.65771 -14.6985 
3.26324 -8.65781 -14.6985 
3.26319 -8.65791 -14.6986 
3.26315 -8.65801 -14.6987 
3.26311 -8.65811 -14.6987 
3.26306 -8.65821 -14.6988 
3.26302 -8.65831 -14.6988 
3.26298 -8.65841 -14.6989 
3.26293 -8.65851 -14.699 
3.26289 -8.65861 -14.699 
3.26285 -8.65871 -14.6991 
3.26281 -8.65881 -14.6992 
3.26277 -8.65891 -14.6992 
3.26272 -8.65901 -14.6993 
3.26268 -8.65911 -14.6994 
3.26264 -8.65921 -14.6994 
3.2626 -8.65931 -14.6995 
3.26256 -8.65941 -14.6996 
3.26252 -8.65951 -14.6996 
3.26248 -8.65961 -14.6997 
3.26244 -8.65971 -14.6997 
3.2624 -8.65981 -14.6998 
3.26236 -8.65991 -14.6999 
3.26232 -8.66001 -14.6999 
3.26229 -8.66011 -14.7 
3.26225 -8.66021 -14.7001 
3.26221 -8.66031 -14.7001 
3.26217 -8.66041 -14.7002 
3.26213 -8.66051 -14.7002 
3.2621 -8.66061 -14.7003 
3.26206 -8.66071 -14.7004 
3.26202 -8.66081 -14.7004 
3.26199 -8.66091 -14.7005 
3.26195 -8.66101 -14.7005 
3.26191 -8.66111 -14.7006 
3.26188 -8.66121 -14.7007 
3.26184 -8.66131 -14.7007 
3.26181 -8.66141 -14.7008 
3.26177 -8.66151 -14.7009 
3.26174 -8.66161 -14.7009 
3.2617 -8.66171 -14.701 
3.26167 -8.66181 -14.701 
3.26163 -8.66191 -14.7011 
3.2616 -8.66201 -14.7011 
3.26157 -8.66211 -14.7012 
3.26153 -8.66221 -14.7013 
3.2615 -8.66231 -14.7013 
3.26147 -8.66241 -14.7014 
3.26144 -8.66251 -14.7014 
3.26141 -8.66261 -14.7015 
3.26137 -8.66271 -14.7016 
3.26134 -8.66281 -14.7016 
3.26131 -8.66291 -14.7017 
3.26128 -8.66301 -14.7017 
3.26125 -8.66311 -14.7018 
3.26122 -8.66321 -14.7018 
3.26119 -8.66331 -14.7019 
3.26116 -8.66341 -14.702 
3.26113 -8.66351 -14.702 
3.2611 -8.66361 -14.7021 
3.26108 -8.66371 -14.7021 
3.26105 -8.66381 -14.7022 
3.26102 -8.66391 -14.7022 
3.26099 -8.66401 -14.7023 
3.26097 -8.66411 -14.7024 
3.26094 -8.66421 -14.7024 
3.26091 -8.66431 -14.7025 
3.26089 -8.66441 -14.7025 
3.26086 -8.66451 -14.7026 
3.26084 -8.66461 -14.7026 
3.26081 -8.66471 -14.7027 
3.26079 -8.66481 -14.7027 
3.26076 -8.66491 -14.7028 
3.26074 -8.66501 -14.7028 
3.26071 -8.66511 -14.7029 
3.26069 -8.66521 -14.7029 
3.26067 -8.66531 -14.703 
3.26065 -8.66541 -14.703 
3.26062 -8.66551 -14.7031 
3.2606 -8.66561 -14.7032 
3.26058 -8.66571 -14.7032 
3.26056 -8.66581 -14.7033 
3.26054 -8.66591 -14.7033 
3.26052 -8.66601 -14.7034 
3.2605 -8.66611 -14.7034 
3.26048 -8.66621 -14.7035 
3.26046 -8.66631 -14.7035 
3.26044 -8.66641 -14.7036 
3.26042 -8.66651 -14.7036 
3.26041 -8.66661 -14.7037 
3.26039 -8.66671 -14.7037 
3.26037 -8.66681 -14.7038 
3.26035 -8.66691 -14.7038 
3.26034 -8.66701 -14.7039 
3.26032 -8.66711 -14.7039 
3.26031 -8.66721 -14.7039 
3.26029 -8.66731 -14.704 
3.26028 -8.66741 -14.704 
3.26026 -8.66751 -14.7041 
3.26025 -8.66761 -14.7041 
3.26024 -8.66771 -14.7042 
3.26023 -8.66781 -14.7042 
3.26021 -8.66791 -14.7043 
3.2602 -8.66801 -14.7043 
3.26019 -8.66811 -14.7044 
3.26018 -8.66821 -14.7044 
3.26017 -8.66831 -14.7045 
3.26016 -8.66841 -14.7045 
3.26015 -8.66851 -14.7045 
3.26014 -8.66861 -14.7046 
3.26013 -8.66871 -14.7046 
3.26013 -8.66881 -14.7047 
3.26012 -8.66891 -14.7047 
3.26011 -8.66901 -14.7048 
3.26011 -8.66911 -14.7048 
3.2601 -8.66921 -14.7048 
3.2601 -8.66931 -14.7049 
3.26009 -8.66941 -14.7049 
3.26009 -8.66951 -14.705 
3.26008 -8.66961 -14.705 
3.26008 -8.66971 -14.705 
3.26008 -8.66981 -14.7051 
3.26008 -8.66991 -14.7051 
3.26008 -8.67001 -14.7052 
3.26007 -8.67011 -14.7052 
3.26007 -8.67021 -14.7052 
3.26007 -8.67031 -14.7053 
3.26007 -8.67041 -14.7053 
3.26007 -8.67051 -14.7054 
3.26007 -8.67061 -14.7054 
3.26007 -8.67071 -14.7054 
3.26007 -8.67081 -14.7055 
3.26007 -8.67091 -14.7055 
3.26007 -8.67101 -14.7055 
3.26007 -8.67111 -14.7056 
3.26007 -8.67121 -14.7056 
3.26007 -8.67131 -14.7056 
3.26007 -8.67141 -14.7057 
3.26007 -8.67151 -14.7057 
3.26007 -8.67161 -14.7057 
3.26007 -8.67171 -14.7058 
3.26007 -8.67181 -14.7058 
3.26007 -8.67191 -14.7058 
3.26007 -8.67201 -14.7059 
3.26007 -8.67211 -14.7059 
3.26007 -8.67221 -14.7059 
3.26007 -8.67231 -14.7059 
3.26007 -8.67241 -14.706 
3.26007 -8.67251 -14.706 
3.26007 -8.67261 -14.706 
3.26007 -8.67271 -14.7061 
3.26007 -8.67281 -14.7061 
3.26007 -8.67291 -14.7061 
3.26007 -8.67301 -14.7061 
3.26007 -8.67311 -14.7062 
3.26007 -8.67321 -14.7062 
3.26007 -8.67331 -14.7062 
3.26007 -8.67341 -14.7062 
3.26007 -8.67351 -14.7062 
3.26007 -8.67361 -14.7063 
3.26007 -8.67371 -14.7063 
3.26007 -8.67381 -14.7063 
3.26007 -8.67391 -14.7063 
3.26007 -8.67401 -14.7064 
3.26007 -8.67411 -14.7064 
3.26007 -8.67421 -14.7064 
3.26007 -8.67431 -14.7064 
3.26007 -8.67441 -14.7064 
3.26007 -8.67451 -14.7064 
3.26007 -8.67461 -14.7065 
3.26007 -8.67471 -14.7065 
3.26007 -8.67481 -14.7065 
3.26007 -8.67491 -14.7065 
3.26007 -8.67501 -14.7065 
3.26007 -8.67511 -14.7065 
3.26007 -8.67521 -14.7065 
3.26007 -8.67531 -14.7065 
3.26007 -8.67541 -14.7066 
3.26007 -8.67551 -14.7066 
3.26007 -8.67561 -14.7066 
3.26007 -8.67571 -14.7066 
3.26007 -8.67581 -14.7066 
3.26007 -8.67591 -14.7066 
3.26007 -8.67601 -14.7066 
3.26007 -8.67611 -14.7066 
3.26007 -8.67621 -14.7066 
3.26007 -8.67631 -14.7066 
3.26007 -8.67641 -14.7066 
3.26007 -8.67651 -14.7066 
3.26007 -8.67661 -14.7066 
3.26007 -8.67671 -14.7066 
3.26007 -8.67681 -14.7066 
3.26007 -8.67691 -14.7066 
3.26007 -8.67701 -14.7066 
3.26007 -8.67711 -14.7066 
3.26007 -8.67721 -14.7066 
3.26007 -8.67731 -14.7066 
3.26007 -8.67741 -14.7066 
3.26007 -8.67751 -14.7066 
3.26007 -8.67761 -14.7066 
3.26007 -8.67771 -14.7066 
3.26007 -8.67781 -14.7066 
3.26007 -8.67791 -14.7066 
3.26007 -8.67801 -14.7066 
3.26007 -8.67811 -14.7066 
3.26007 -8.67821 -14.7066 
3.26007 -8.67831 -14.7066 
3.26007 -8.67841 -14.7066 
3.26007 -8.67851 -14.7066 
3.26007 -8.67861 -14.7066 
3.26007 -8.67871 -14.7066 
3.26007 -8.67881 -14.7066 
3.26007 -8.67891 -14.7066 
3.26007 -8.67901 -14.7066 
3.26007 -8.67911 -14.7066 
3.26007 -8.67921 -14.7066 
3.26007 -8.67931 -14.7066 
3.26007 -8.67941 -14.7066 
3.26007 -8.67951 -14.7066 
3.26007 -8.67961 -14.7066 
3.26007 -8.67971 -14.7066 
3.26007 -8.67981 -14.7066 
3.26007 -8.67991 -14.7066 
3.26007 -8.68001 -14.7066 
3.26007 -8.68011 -14.7066 
3.26007 -8.68021 -14.7066 
3.26007 -8.68031 -14.7066 
3.26007 -8.68041 -14.7066 
3.26007 -8.68051 -14.7066 
3.26007 -8.68061 -14.7066 
3.26007 -8.68071 -14.7066 
3.26007 -8.68081 -14.7066 
3.26007 -8.68091 -14.7066 
3.26007 -8.68101 -14.7066 
3.26007 -8.68111 -14.7066 
3.26007 -8.68121 -14.7066 
3.26007 -8.68131 -14.7066 
3.26007 -8.68141 -14.7066 
3.26007 -8.68151 -14.7066 
3.26007 -8.68161 -14.7066 
3.26007 -8.68171 -14.7066 
3.26007 -8.68181 -14.7066 
3.26007 -8.68191 -14.7066 
3.26007 -8.68201 -14.7066 
3.26007 -8.68211 -14.7066 
3.26007 -8.68221 -14.7066 
3.26007 -8.68231 -14.7066 
3.26007 -8.68241 -14.7066 
3.26007 -8.68251 -14.7066 
3.26007 -8.68261 -14.7066 
3.26007 -8.68271 -14.7066 
3.26007 -8.68281 -14.7066 
3.26007 -8.68291 -14.7066 
3.26007 -8.68301 -14.7066 
3.26007 -8.68311 -14.7066 
3.26008 -8.68321 -14.7066 
3.26008 -8.68331 -14.7066 
3.26009 -8.68341 -14.7066 
3.2601 -8.68351 -14.7066 
3.26011 -8.68361 -14.7066 
3.26012 -8.68371 -14.7066 
3.26014 -8.68381 -14.7066 
3.26016 -8.68391 -14.7066 
3.26018 -8.68401 -14.7066 
3.2602 -8.68411 -14.7066 
3.26023 -8.68421 -14.7066 
3.26026 -8.68431 -14.7066 
3.26029 -8.68441 -14.7066 
3.26032 -8.68451 -14.7066 
3.26036 -8.68461 -14.7066 
3.2604 -8.68471 -14.7066 
3.26044 -8.68481 -14.7066 
3.26048 -8.68491 -14.7066 
3.26052 -8.68501 -14.7066 
3.26057 -8.68511 -14.7066 
3.26062 -8.68521 -14.7066 
3.26067 -8.68531 -14.7066 
3.26072 -8.68541 -14.7066 
3.26077 -8.68551 -14.7066 
3.26083 -8.68561 -14.7066 
3.26088 -8.68571 -14.7066 
3.26094 -8.68581 -14.7066 
3.261 -8.68591 -14.7066 
3.26106 -8.68601 -14.7066 
3.26113 -8.68611 -14.7066 
3.26119 -8.68621 -14.7066 
3.26126 -8.68631 -14.7066 
3.26133 -8.68641 -14.7066 
3.26139 -8.68651 -14.7066 
3.26146 -8.68661 -14.7065 
3.26153 -8.68671 -14.7065 
3.26161 -8.68681 -14.7065 
3.26168 -8.68691 -14.7065 
3.26175 -8.68701 -14.7065 
3.26183 -8.68711 -14.7064 
3.26191 -8.68721 -14.7064 
3.26198 -8.68731 -14.7064 
3.26206 -8.68741 -14.7064 
3.26214 -8.68751 -14.7063 
3.26222 -8.68761 -14.7063 
3.2623 -8.68771 -14.7063 
3.26238 -8.68781 -14.7062 
3.26247 -8.68791 -14.7062 
3.26255 -8.68801 -14.7061 
3.26263 -8.68811 -14.7061 
3.26272 -8.68821 -14.706 
3.2628 -8.68831 -14.706 
3.26289 -8.68841 -14.706 
3.26297 -8.68851 -14.7059 
3.26306 -8.68861 -14.7059 
3.26315 -8.68871 -14.7058 
3.26323 -8.68881 -14.7058 
3.26332 -8.68891 -14.7057 
3.26341 -8.68901 -14.7056 
3.2635 -8.68911 -14.7056 
3.26359 -8.68921 -14.7055 
3.26368 -8.68931 -14.7055 
3.26377 -8.68941 -14.7054 
3.26386 -8.68951 -14.7054 
3.26395 -8.68961 -14.7053 
3.26404 -8.68971 -14.7052 
3.26414 -8.68981 -14.7052 
3.26423 -8.68991 -14.7051 
3.26432 -8.69001 -14.705 
3.26441 -8.69011 -14.705 
3.26451 -8.69021 -14.7049 
3.2646 -8.69031 -14.7048 
3.26469 -8.69041 -14.7048 
3.26479 -8.69051 -14.7047 
3.26488 -8.69061 -14.7046 
3.26497 -8.69071 -14.7046 
3.26507 -8.69081 -14.7045 
3.26516 -8.69091 -14.7044 
3.26526 -8.69101 -14.7043 
3.26535 -8.69111 -14.7043 
3.26545 -8.69121 -14.7042 
3.26554 -8.69131 -14.7041 
3.26564 -8.69141 -14.7041 
3.26574 -8.69151 -14.704 
3.26583 -8.69161 -14.7039 
3.26593 -8.69171 -14.7038 
3.26602 -8.69181 -14.7037 
3.26612 -8.69191 -14.7037 
3.26622 -8.69201 -14.7036 
3.26631 -8.69211 -14.7035 
3.26641 -8.6922 -14.7034 
3.26651 -8.6923 -14.7034 
3.2666 -8.6924 -14.7033 
3.2667 -8.6925 -14.7032 
3.2668 -8.6926 -14.7031 
3.26689 -8.6927 -14.703 
3.26699 -8.6928 -14.7029 
3.26709 -8.6929 -14.7029 
3.26719 -8.693 -14.7028 
3.26728 -8.6931 -14.7027 
3.26738 -8.6932 -14.7026 
3.26748 -8.6933 -14.7025 
3.26758 -8.6934 -14.7025 
3.26767 -8.6935 -14.7024 
3.26777 -8.6936 -14.7023 
3.26787 -8.6937 -14.7022 
3.26797 -8.6938 -14.7021 
3.26806 -8.6939 -14.702 
3.26816 -8.694 -14.7019 
3.26826 -8.6941 -14.7019 
3.26836 -8.69419 -14.7018 
3.26846 -8.69429 -14.7017 
3.26856 -8.69439 -14.7016 
3.26865 -8.69449 -14.7015 
3.26875 -8.69459 -14.7014 
3.26885 -8.69469 -14.7013 
3.26895 -8.69479 -14.7012 
3.26905 -8.69489 -14.7012 
3.26915 -8.69499 -14.7011 
3.26924 -8.69509 -14.701 
3.26934 -8.69519 -14.7009 
3.26944 -8.69528 -14.7008 
3.26954 -8.69538 -14.7007 
3.26964 -8.69548 -14.7006 
3.26974 -8.69558 -14.7005 
3.26984 -8.69568 -14.7005 
3.26994 -8.69578 -14.7004 
3.27003 -8.69588 -14.7003 
3.27013 -8.69598 -14.7002 
3.27023 -8.69607 -14.7001 
3.27033 -8.69617 -14.7 
3.27043 -8.69627 -14.6999 
3.27053 -8.69637 -14.6998 
3.27063 -8.69647 -14.6997 
3.27073 -8.69656 -14.6996 
3.27083 -8.69666 -14.6995 
3.27092 -8.69676 -14.6995 
3.27102 -8.69686 -14.6994 
3.27112 -8.69696 -14.6993 
3.27122 -8.69705 -14.6992 
3.27132 -8.69715 -14.6991 
3.27142 -8.69725 -14.699 
3.27152 -8.69735 -14.6989 
3.27162 -8.69745 -14.6988 
3.27172 -8.69754 -14.6987 
3.27182 -8.69764 -14.6986 
3.27192 -8.69774 -14.6985 
3.27201 -8.69783 -14.6984 
3.27211 -8.69793 -14.6984 
3.27221 -8.69803 -14.6983 
3.27231 -8.69813 -14.6982 
3.27241 -8.69822 -14.6981 
3.27251 -8.69832 -14.698 
3.27261 -8.69842 -14.6979 
3.27271 -8.69851 -14.6978 
3.27281 -8.69861 -14.6977 
3.27291 -8.69871 -14.6976 
3.27301 -8.6988 -14.6975 
3.27311 -8.6989 -14.6974 
3.27321 -8.69899 -14.6973 
3.27331 -8.69909 -14.6972 
3.27341 -8.69919 -14.6971 
3.2735 -8.69928 -14.6971 
3.2736 -8.69938 -14.697 
3.2737 -8.69947 -14.6969 
3.2738 -8.69957 -14.6968 
3.2739 -8.69966 -14.6967 
3.274 -8.69976 -14.6966 
3.2741 -8.69985 -14.6965 
3.2742 -8.69995 -14.6964 
3.2743 -8.70004 -14.6963 
3.2744 -8.70014 -14.6962 
3.2745 -8.70023 -14.6961 
3.2746 -8.70033 -14.696 
3.2747 -8.70042 -14.6959 
3.2748 -8.70051 -14.6958 
3.2749 -8.70061 -14.6957 
3.275 -8.7007 -14.6956 
3.2751 -8.7008 -14.6955 
3.2752 -8.70089 -14.6955 
3.2753 -8.70098 -14.6954 
3.2754 -8.70108 -14.6953 
3.27549 -8.70117 -14.6952 
3.27559 -8.70126 -14.6951 
3.27569 -8.70135 -14.695 
3.27579 -8.70145 -14.6949 
3.27589 -8.70154 -14.6948 
3.27599 -8.70163 -14.6947 
3.27609 -8.70172 -14.6946 
3.27619 -8.70181 -14.6945 
3.27629 -8.70191 -14.6944 
3.27639 -8.702 -14.6943 
3.27649 -8.70209 -14.6942 
3.27659 -8.70218 -14.6941 
3.27669 -8.70227 -14.694 
3.27679 -8.70236 -14.6939 
3.27689 -8.70245 -14.6938 
3.27699 -8.70254 -14.6937 
3.27709 -8.70263 -14.6936 
3.27719 -8.70272 -14.6935 
3.27729 -8.70281 -14.6935 
3.27739 -8.7029 -14.6934 
3.27749 -8.70299 -14.6933 
3.27759 -8.70308 -14.6932 
3.27769 -8.70317 -14.6931 
3.27779 -8.70326 -14.693 
3.27789 -8.70335 -14.6929 
3.27799 -8.70343 -14.6928 
3.27808 -8.70352 -14.6927 
3.27818 -8.70361 -14.6926 
3.27828 -8.7037 -14.6925 
3.27838 -8.70378 -14.6924 
3.27848 -8.70387 -14.6923 
3.27858 -8.70396 -14.6922 
3.27868 -8.70404 -14.6921 
3.27878 -8.70413 -14.692 
3.27888 -8.70422 -14.6919 
3.27898 -8.7043 -14.6918 
3.27908 -8.70439 -14.6917 
3.27918 -8.70447 -14.6916 
3.27928 -8.70456 -14.6915 
3.27938 -8.70464 -14.6914 
3.27948 -8.70473 -14.6913 
3.27958 -8.70481 -14.6912 
3.27968 -8.70489 -14.6911 
3.27978 -8.70498 -14.691 
3.27988 -8.70506 -14.691 
3.27998 -8.70514 -14.6909 
3.28008 -8.70523 -14.6908 
3.28018 -8.70531 -14.6907 
3.28028 -8.70539 -14.6906 
3.28038 -8.70547 -14.6905 
3.28048 -8.70556 -14.6904 
3.28058 -8.70564 -14.6903 
3.28068 -8.70572 -14.6902 
3.28078 -8.7058 -14.6901 
3.28088 -8.70588 -14.69 
3.28098 -8.70596 -14.6899 
3.28108 -8.70604 -14.6898 
3.28118 -8.70612 -14.6897 
3.28128 -8.7062 -14.6896 
3.28137 -8.70628 -14.6895 
3.28147 -8.70635 -14.6894 
3.28157 -8.70643 -14.6893 
3.28167 -8.70651 -14.6892 
3.28177 -8.70659 -14.6891 
3.28187 -8.70666 -14.689 
3.28197 -8.70674 -14.6889 
3.28207 -8.70682 -14.6888 
3.28217 -8.70689 -14.6887 
3.28227 -8.70697 -14.6886 
3.28237 -8.70704 -14.6885 
3.28247 -8.70712 -14.6884 
3.28257 -8.70719 -14.6883 
3.28267 -8.70727 -14.6882 
3.28277 -8.70734 -14.6881 
3.28287 -8.70741 -14.688 
3.28297 -8.70749 -14.6879 
3.28307 -8.70756 -14.6879 
3.28317 -8.70763 -14.6878 
3.28327 -8.7077 -14.6877 
3.28337 -8.70778 -14.6876 
3.28347 -8.70785 -14.6875 
3.28357 -8.70792 -14.6874 
3.28367 -8.70799 -14.6873 
3.28377 -8.70806 -14.6872 
3.28387 -8.70813 -14.6871 
3.28397 -8.70819 -14.687 
3.28407 -8.70826 -14.6869 
3.28417 -8.70833 -14.6868 
3.28427 -8.7084 -14.6867 
3.28437 -8.70846 -14.6866 
3.28447 -8.70853 -14.6865 
3.28457 -8.7086 -14.6864 
3.28467 -8.70866 -14.6863 
3.28477 -8.70873 -14.6862 
3.28487 -8.70879 -14.6861 
3.28497 -8.70886 -14.686 
3.28507 -8.70892 -14.6859 
3.28516 -8.70898 -14.6858 
3.28526 -8.70905 -14.6857 
3.28536 -8.70911 -14.6856 
3.28546 -8.70917 -14.6855 
3.28556 -8.70923 -14.6854 
3.28566 -8.70929 -14.6853 
3.28576 -8.70935 -14.6852 
3.28586 -8.70941 -14.6851 
3.28596 -8.70947 -14.685 
3.28606 -8.70953 -14.6849 
3.28616 -8.70959 -14.6848 
3.28626 -8.70964 -14.6847 
3.28636 -8.7097 -14.6846 
3.28646 -8.70976 -14.6845 
3.28656 -8.70981 -14.6844 
3.28666 -8.70987 -14.6843 
3.28676 -8.70992 -14.6842 
3.28686 -8.70997 -14.6841 
3.28696 -8.71003 -14.684 
3.28706 -8.71008 -14.6839 
3.28716 -8.71013 -14.6838 
3.28726 -8.71018 -14.6837 
3.28736 -8.71023 -14.6836 
3.28746 -8.71028 -14.6836 
3.28756 -8.71033 -14.6835 
3.28766 -8.71038 -14.6834 
3.28776 -8.71043 -14.6833 
3.28786 -8.71048 -14.6832 
3.28796 -8.71052 -14.6831 
3.28806 -8.71057 -14.683 
3.28816 -8.71061 -14.6829 
3.28826 -8.71066 -14.6828 
3.28836 -8.7107 -14.6827 
3.28846 -8.71074 -14.6826 
3.28856 -8.71079 -14.6825 
3.28865 -8.71083 -14.6824 
3.28875 -8.71087 -14.6823 
3.28885 -8.71091 -14.6822 
3.28895 -8.71095 -14.6821 
3.28905 -8.71098 -14.682 
3.28915 -8.71102 -14.6819 
3.28925 -8.71106 -14.6818 
3.28935 -8.71109 -14.6817 
3.28945 -8.71113 -14.6816 
3.28955 -8.71116 -14.6815 
3.28965 -8.71119 -14.6814 
3.28975 -8.71123 -14.6813 
3.28985 -8.71126 -14.6812 
3.28995 -8.71129 -14.6811 
3.29005 -8.71131 -14.681 
3.29015 -8.71134 -14.6809 
3.29025 -8.71137 -14.6808 
3.29035 -8.7114 -14.6807 
3.29045 -8.71142 -14.6806 
3.29055 -8.71144 -14.6805 
3.29065 -8.71147 -14.6804 
3.29075 -8.71149 -14.6803 
3.29085 -8.71151 -14.6802 
3.29095 -8.71153 -14.6801 
3.29105 -8.71155 -14.68 
3.29115 -8.71157 -14.6799 
3.29125 -8.71158 -14.6798 
3.29135 -8.7116 -14.6797 
3.29144 -8.71161 -14.6796 
3.29154 -8.71162 -14.6795 
3.29164 -8.71163 -14.6794 
3.29174 -8.71164 -14.6793 
3.29184 -8.71165 -14.6792 
3.29194 -8.71166 -14.6791 
3.29204 -8.71166 -14.679 
3.29214 -8.71167 -14.6789 
3.29224 -8.71167 -14.6788 
3.29234 -8.71167 -14.6787 
3.29244 -8.71167 -14.6786 
3.29254 -8.71167 -14.6785 
3.29264 -8.71167 -14.6784 
3.29274 -8.71167 -14.6783 
3.29284 -8.71167 -14.6782 
3.29294 -8.71167 -14.6781 
3.29304 -8.71167 -14.678 
3.29314 -8.71167 -14.6779 
3.29324 -8.71167 -14.6778 
3.29334 -8.71167 -14.6777 
3.29344 -8.71167 -14.6776 
3.29353 -8.71167 -14.6775 
3.29363 -8.71167 -14.6774 
3.29373 -8.71167 -14.6773 
3.29383 -8.71167 -14.6772 
3.29393 -8.71167 -14.6771 
3.29403 -8.71167 -14.677 
3.29413 -8.71167 -14.6769 
3.29423 -8.71167 -14.6768 
3.29433 -8.71167 -14.6767 
3.29443 -8.71167 -14.6766 
3.29453 -8.71167 -14.6765 
3.29463 -8.71167 -14.6764 
3.29473 -8.71167 -14.6763 
3.29483 -8.71167 -14.6762 
3.29493 -8.71167 -14.6761 
3.29503 -8.71167 -14.676 
3.29512 -8.71167 -14.6759 
3.29522 -8.71167 -14.6758 
3.29532 -8.71167 -14.6757 
3.29542 -8.71167 -14.6756 
3.29552 -8.71167 -14.6755 
3.29562 -8.71167 -14.6754 
3.29572 -8.71167 -14.6753 
3.29582 -8.71167 -14.6752 
3.29592 -8.71167 -14.6751 
3.29602 -8.71167 -14.6751 
3.29612 -8.71167 -14.675 
3.29621 -8.71167 -14.6749 
3.29631 -8.71167 -14.6748 
3.29641 -8.71167 -14.6747 
3.29651 -8.71167 -14.6746 
3.29661 -8.71167 -14.6745 
3.29671 -8.71167 -14.6744 
3.29681 -8.71167 -14.6743 
3.29691 -8.71167 -14.6742 
3.297 -8.71167 -14.6741 
3.2971 -8.71167 -14.674 
3.2972 -8.71167 -14.6739 
3.2973 -8.71167 -14.6738 
3.2974 -8.71167 -14.6737 
3.2975 -8.71167 -14.6736 
3.29759 -8.71167 -14.6735 
3.29769 -8.71167 -14.6734 
3.29779 -8.71167 -14.6733 
3.29789 -8.71167 -14.6732 
3.29799 -8.71167 -14.6731 
3.29808 -8.71167 -14.673 
3.29818 -8.71167 -14.6729 
3.29828 -8.71167 -14.6728 
3.29838 -8.71167 -14.6727 
3.29848 -8.71167 -14.6726 
3.29857 -8.71167 -14.6725 
3.29867 -8.71167 -14.6724 
3.29877 -8.71167 -14.6723 
3.29886 -8.71167 -14.6722 
3.29896 -8.71167 -14.6721 
3.29906 -8.71167 -14.672 
3.29915 -8.71167 -14.6719 
3.29925 -8.71167 -14.6718 
3.29935 -8.71167 -14.6717 
3.29944 -8.71166 -14.6716 
3.29954 -8.71165 -14.6715 
3.29963 -8.71163 -14.6714 
3.29973 -8.71162 -14.6713 
3.29982 -8.71159 -14.6712 
3.29992 -8.71157 -14.6711 
3.30001 -8.71154 -14.671 
3.3001 -8.71151 -14.6709 
3.3002 -8.71148 -14.6708 
3.30029 -8.71144 -14.6707 
3.30038 -8.7114 -14.6706 
3.30048 -8.71136 -14.6705 
3.30057 -8.71131 -14.6704 
3.30066 -8.71127 -14.6703 
3.30075 -8.71122 -14.6702 
3.30084 -8.71116 -14.6701 
3.30093 -8.71111 -14.67 
3.30102 -8.71105 -14.6699 
3.30111 -8.711 -14.6698 
3.3012 -8.71094 -14.6697 
3.30128 -8.71087 -14.6696 
3.30137 -8.71081 -14.6695 
3.30146 -8.71075 -14.6694 
3.30154 -8.71068 -14.6693 
3.30162 -8.71061 -14.6692 
3.30171 -8.71054 -14.6691 
3.30179 -8.71047 -14.669 
3.30187 -8.7104 -14.6689 
3.30195 -8.71032 -14.6688 
3.30203 -8.71025 -14.6687 
3.30211 -8.71017 -14.6686 
3.30218 -8.7101 -14.6685 
3.30226 -8.71002 -14.6684 
3.30233 -8.70994 -14.6683 
3.30241 -8.70986 -14.6682 
3.30248 -8.70978 -14.6681 
3.30255 -8.7097 -14.668 
3.30261 -8.70961 -14.6679 
3.30268 -8.70953 -14.6678 
3.30274 -8.70945 -14.6677 
3.30281 -8.70936 -14.6676 
3.30287 -8.70928 -14.6675 
3.30293 -8.70919 -14.6674 
3.30298 -8.70911 -14.6673 
3.30304 -8.70902 -14.6672 
3.30309 -8.70893 -14.6671 
3.30314 -8.70884 -14.667 
3.30318 -8.70876 -14.6669 
3.30323 -8.70867 -14.6668 
3.30327 -8.70858 -14.6667 
3.30331 -8.70849 -14.6666 
3.30334 -8.7084 -14.6665 
3.30337 -8.70831 -14.6664 
3.3034 -8.70822 -14.6663 
3.30343 -8.70813 -14.6662 
3.30345 -8.70804 -14.6661 
3.30347 -8.70795 -14.666 
3.30348 -8.70786 -14.6659 
3.30349 -8.70776 -14.6658 
3.3035 -8.70767 -14.6657 
3.30351 -8.70758 -14.6656 
3.30351 -8.70749 -14.6655 
3.30351 -8.7074 -14.6654 
3.30351 -8.7073 -14.6653 
3.30351 -8.70721 -14.6652 
3.30351 -8.70712 -14.6651 
3.30351 -8.70702 -14.665 
3.30351 -8.70693 -14.6649 
3.30351 -8.70684 -14.6648 
3.30351 -8.70674 -14.6647 
3.30351 -8.70665 -14.6646 
3.30351 -8.70656 -14.6645 
3.30351 -8.70646 -14.6644 
3.30351 -8.70637 -14.6643 
3.30351 -8.70628 -14.6642 
3.30351 -8.70618 -14.6641 
3.30351 -8.70609 -14.664 
3.30351 -8.706 -14.6639 
3.30351 -8.7059 -14.6638 
3.30351 -8.70581 -14.6637 
3.30351 -8.70572 -14.6636 
3.30351 -8.70562 -14.6635 
3.30351 -8.70553 -14.6634 
3.30351 -8.70543 -14.6633 
3.30351 -8.70534 -14.6632 
3.30351 -8.70525 -14.6631 
3.30351 -8.70515 -14.663 
3.30351 -8.70506 -14.6629 
3.30351 -8.70497 -14.6628 
3.30351 -8.70487 -14.6627 
3.30351 -8.70478 -14.6626 
3.30351 -8.70469 -14.6625 
3.30351 -8.70459 -14.6624 
3.30351 -8.7045 -14.6623 
3.30351 -8.70441 -14.6622 
3.30351 -8.70432 -14.6621 
3.30351 -8.70422 -14.662 
3.30351 -8.70413 -14.6619 
3.30351 -8.70404 -14.6618 
3.3035 -8.70395 -14.6617 
3.30349 -8.70386 -14.6616 
3.30348 -8.70376 -14.6615 
3.30346 -8.70367 -14.6614 
3.30344 -8.70358 -14.6613 
3.30342 -8.70349 -14.6612 
3.30339 -8.7034 -14.6611 
3.30336 -8.70331 -14.661 
3.30332 -8.70322 -14.6609 
3.30329 -8.70313 -14.6608 
3.30324 -8.70304 -14.6607 
3.3032 -8.70295 -14.6606 
3.30315 -8.70286 -14.6605 
3.3031 -8.70277 -14.6604 
3.30305 -8.70268 -14.6603 
3.303 -8.7026 -14.6602 
3.30294 -8.70251 -14.6601 
3.30288 -8.70242 -14.66 
3.30282 -8.70234 -14.6599 
3.30275 -8.70225 -14.6598 
3.30269 -8.70216 -14.6597 
3.30262 -8.70208 -14.6596 
3.30255 -8.70199 -14.6595 
3.30248 -8.70191 -14.6594 
3.30241 -8.70183 -14.6593 
3.30234 -8.70174 -14.6592 
3.30227 -8.70166 -14.6591 
3.30219 -8.70158 -14.659 
3.30211 -8.7015 -14.6589 
3.30204 -8.70142 -14.6588 
3.30196 -8.70134 -14.6587 
3.30188 -8.70126 -14.6586 
3.3018 -8.70118 -14.6585 
3.30171 -8.7011 -14.6584 
3.30163 -8.70102 -14.6583 
3.30155 -8.70095 -14.6582 
3.30146 -8.70087 -14.6581 
3.30138 -8.7008 -14.658 
3.30129 -8.70072 -14.6579 
3.30121 -8.70065 -14.6578 
3.30112 -8.70058 -14.6577 
3.30103 -8.7005 -14.6576 
3.30095 -8.70043 -14.6575 
3.30086 -8.70036 -14.6574 
3.30077 -8.7003 -14.6573 
3.30068 -8.70023 -14.6572 
3.30059 -8.70016 -14.6571 
3.3005 -8.7001 -14.657 
3.30041 -8.70003 -14.6569 
3.30032 -8.69997 -14.6568 
3.30023 -8.69991 -14.6567 
3.30013 -8.69985 -14.6566 
3.30004 -8.69979 -14.6565 
3.29995 -8.69973 -14.6564 
3.29986 -8.69967 -14.6563 
3.29977 -8.69962 -14.6562 
3.29967 -8.69957 -14.6561 
3.29958 -8.69951 -14.656 
3.29949 -8.69946 -14.6559 
3.29939 -8.69941 -14.6558 
3.2993 -8.69937 -14.6557 
3.2992 -8.69932 -14.6556 
3.29911 -8.69928 -14.6555 
3.29902 -8.69924 -14.6554 
3.29892 -8.6992 -14.6553 
3.29883 -8.69916 -14.6552 
3.29873 -8.69912 -14.6551 
3.29864 -8.69909 -14.655 
3.29854 -8.69905 -14.6549 
3.29845 -8.69902 -14.6548 
3.29835 -8.699 -14.6547 
3.29826 -8.69897 -14.6546 
3.29816 -8.69895 -14.6545 
3.29807 -8.69893 -14.6544 
3.29797 -8.69891 -14.6543 
3.29787 -8.69889 -14.6542 
3.29778 -8.69888 -14.6541 
3.29768 -8.69887 -14.654 
3.29759 -8.69886 -14.6539 
3.29749 -8.69886 -14.6538 
3.29739 -8.69886 -14.6537 
3.2973 -8.69886 -14.6536 
3.2972 -8.69886 -14.6535 
3.29711 -8.69886 -14.6534 
3.29701 -8.69886 -14.6533 
3.29691 -8.69886 -14.6532 
3.29682 -8.69886 -14.6531 
3.29672 -8.69886 -14.653 
3.29662 -8.69886 -14.6529 
3.29653 -8.69886 -14.6528 
3.29643 -8.69886 -14.6527 
3.29634 -8.69886 -14.6526 
3.29624 -8.69886 -14.6525 
3.29614 -8.69886 -14.6524 
3.29605 -8.69886 -14.6523 
3.29595 -8.69886 -14.6522 
3.29585 -8.69886 -14.6521 
3.29576 -8.69886 -14.652 
3.29566 -8.69886 -14.6519 
3.29556 -8.69886 -14.6518 
3.29547 -8.69886 -14.6517 
3.29537 -8.69886 -14.6516 
3.29528 -8.69886 -14.6515 
3.29518 -8.69886 -14.6514 
3.29508 -8.69886 -14.6513 
3.29499 -8.69886 -14.6512 
3.29489 -8.69886 -14.6511 
3.2948 -8.69886 -14.651 
3.2947 -8.69886 -14.6509 
3.2946 -8.69886 -14.6508 
3.29451 -8.69886 -14.6507 
3.29441 -8.69886 -14.6506 
3.29432 -8.69886 -14.6505 
3.29422 -8.69886 -14.6504 
3.29413 -8.69886 -14.6503 
3.29403 -8.69886 -14.6502 
3.29394 -8.69886 -14.6501 
3.29384 -8.69886 -14.65 
3.29375 -8.69886 -14.6499 
3.29365 -8.69886 -14.6498 
3.29356 -8.69886 -14.6497 
3.29347 -8.69886 -14.6496 
3.29337 -8.69887 -14.6495 
3.29328 -8.69889 -14.6494 
3.29319 -8.6989 -14.6493 
3.2931 -8.69893 -14.6492 
3.293 -8.69896 -14.6491 
3.29291 -8.69899 -14.649 
3.29282 -8.69902 -14.6489 
3.29273 -8.69906 -14.6488 
3.29264 -8.69911 -14.6487 
3.29255 -8.69916 -14.6486 
3.29246 -8.69921 -14.6485 
3.29237 -8.69926 -14.6484 
3.29228 -8.69932 -14.6483 
3.29219 -8.69938 -14.6482 
3.2921 -8.69944 -14.6481 
3.29202 -8.69951 -14.648 
3.29193 -8.69957 -14.6479 
3.29185 -8.69964 -14.6478 
3.29176 -8.69971 -14.6477 
3.29168 -8.69979 -14.6476 
3.29159 -8.69986 -14.6475 
3.29151 -8.69994 -14.6474 
3.29143 -8.70002 -14.6473 
3.29135 -8.7001 -14.6472 
3.29127 -8.70018 -14.6471 
3.29119 -8.70026 -14.647 
3.29112 -8.70035 -14.6469 
3.29104 -8.70043 -14.6468 
3.29097 -8.70052 -14.6468 
3.29089 -8.7006 -14.6467 
3.29082 -8.70069 -14.6466 
3.29075 -8.70078 -14.6465 
3.29068 -8.70087 -14.6464 
3.29061 -8.70096 -14.6463 
3.29055 -8.70105 -14.6462 
3.29048 -8.70114 -14.6461 
3.29042 -8.70123 -14.646 
3.29036 -8.70132 -14.6459 
3.2903 -8.70141 -14.6458 
3.29024 -8.70151 -14.6457 
3.29018 -8.7016 -14.6457 
3.29013 -8.70169 -14.6456 
3.29008 -8.70179 -14.6455 
3.29003 -8.70188 -14.6454 
3.28998 -8.70198 -14.6453 
3.28994 -8.70207 -14.6452 
3.28989 -8.70217 -14.6451 
3.28985 -8.70226 -14.6451 
3.28982 -8.70236 -14.645 
3.28978 -8.70245 -14.6449 
3.28975 -8.70255 -14.6448 
3.28972 -8.70264 -14.6447 
3.28969 -8.70274 -14.6446 
3.28967 -8.70284 -14.6446 
3.28965 -8.70293 -14.6445 
3.28963 -8.70303 -14.6444 
3.28961 -8.70313 -14.6443 
3.2896 -8.70323 -14.6443 
3.28959 -8.70332 -14.6442 
3.28959 -8.70342 -14.6441 
3.28959 -8.70352 -14.644 
3.28959 -8.70362 -14.644 
3.28959 -8.70371 -14.6439 
3.28959 -8.70381 -14.6438 
3.28959 -8.70391 -14.6438 
3.28959 -8.70401 -14.6437 
3.28959 -8.7041 -14.6436 
3.28959 -8.7042 -14.6436 
3.28959 -8.7043 -14.6435 
3.28959 -8.7044 -14.6434 
3.28959 -8.7045 -14.6434 
3.28959 -8.7046 -14.6433 
3.28959 -8.70469 -14.6433 
3.28959 -8.70479 -14.6432 
3.28959 -8.70489 -14.6431 
3.28959 -8.70499 -14.6431 
3.28959 -8.70509 -14.643 
3.28959 -8.70519 -14.643 
3.28959 -8.70528 -14.6429 
3.28959 -8.70538 -14.6429 
3.28959 -8.70548 -14.6428 
3.28959 -8.70558 -14.6428 
3.28959 -8.70568 -14.6427 
3.28959 -8.70578 -14.6426 
3.28959 -8.70588 -14.6426 
3.28959 -8.70597 -14.6425 
3.28959 -8.70607 -14.6425 
3.28959 -8.70617 -14.6424 
3.28959 -8.70627 -14.6424 
3.28959 -8.70637 -14.6423 
3.28959 -8.70647 -14.6423 
3.28959 -8.70657 -14.6422 
3.28959 -8.70667 -14.6422 
3.28959 -8.70677 -14.6422 
3.28959 -8.70686 -14.6421 
3.28959 -8.70696 -14.6421 
3.28959 -8.70706 -14.642 
3.28959 -8.70716 -14.642 
3.28959 -8.70726 -14.6419 
3.28959 -8.70736 -14.6419 
3.28959 -8.70746 -14.6418 
3.28959 -8.70756 -14.6418 
3.28959 -8.70765 -14.6417 
3.28959 -8.70775 -14.6417 
3.28959 -8.70785 -14.6416 
3.28959 -8.70795 -14.6416 
3.28959 -8.70805 -14.6415 
3.28959 -8.70815 -14.6415 
3.28959 -8.70825 -14.6414 
3.2896 -8.70835 -14.6414 
3.28961 -8.70844 -14.6413 
3.28962 -8.70854 -14.6413 
3.28964 -8.70864 -14.6412 
3.28966 -8.70874 -14.6412 
3.28968 -8.70884 -14.6411 
3.28971 -8.70894 -14.6411 
3.28974 -8.70904 -14.641 
3.28977 -8.70913 -14.641 
3.2898 -8.70923 -14.6409 
3.28984 -8.70933 -14.6409 
3.28988 -8.70943 -14.6408 
3.28992 -8.70953 -14.6408 
3.28997 -8.70963 -14.6407 
3.29001 -8.70973 -14.6406 
3.29006 -8.70982 -14.6406 
3.29011 -8.70992 -14.6405 
3.29017 -8.71002 -14.6405 
3.29022 -8.71012 -14.6404 
3.29028 -8.71022 -14.6404 
3.29034 -8.71032 -14.6403 
3.2904 -8.71041 -14.6402 
3.29046 -8.71051 -14.6402 
3.29053 -8.71061 -14.6401 
3.29059 -8.71071 -14.6401 
3.29066 -8.71081 -14.64 
